{"learner":{"attributes":{"best_iteration":"73","best_score":"0.24410069206845947","scikit_learn":"{\"_estimator_type\": \"classifier\"}"},"feature_names":[],"feature_types":[],"gradient_booster":{"model":{"gbtree_model_param":{"num_parallel_tree":"1","num_trees":"84"},"iteration_indptr":[0,1,2,3,4,5,6,7,8,9,10,11,12,13,14,15,16,17,18,19,20,21,22,23,24,25,26,27,28,29,30,31,32,33,34,35,36,37,38,39,40,41,42,43,44,45,46,47,48,49,50,51,52,53,54,55,56,57,58,59,60,61,62,63,64,65,66,67,68,69,70,71,72,73,74,75,76,77,78,79,80,81,82,83,84],"tree_info":[0,0,0,0,0,0,0,0,0,0,0,0,0,0,0,0,0,0,0,0,0,0,0,0,0,0,0,0,0,0,0,0,0,0,0,0,0,0,0,0,0,0,0,0,0,0,0,0,0,0,0,0,0,0,0,0,0,0,0,0,0,0,0,0,0,0,0,0,0,0,0,0,0,0,0,0,0,0,0,0,0,0,0,0],"trees":[{"base_weights":[1.4676104E-2,-1.1741464E0,1.8006973E0,-2.2408132E-1,-1.7704561E0,1.8882908E0,1.498964E-1,-6.8841124E-1,1.3256326E0,-1.9156662E0,-9.1127133E-1,-1.5352E-1,1.9118118E0,-1.2828903E0,1.2700664E0,-1.6006598E0,-3.6623904E-1,1.5156039E0,-6.8692726E-1,-8.25041E-4,-1.9295667E0,8.945443E-1,-1.4653972E0,5.479747E-2,-6.0831852E-2,1.9237964E0,-1.1876198E-2,-8.295595E-2,1.0348358E-2,8.503549E-2,-3.4100756E-2,-1.7722758E0,-2.0626608E-2,1.0355348E-1,-8.5461015E-1,1.6244657E0,-3.4100756E-2,1.0348358E-2,-6.0831852E-2,-6.2209266E-1,-1.9526341E0,1.3511626E0,-5.6325313E-2,-9.463328E-2,-9.223159E-1,1.9398546E0,2.6610863E-1,-9.364675E-2,-8.25041E-4,5.918177E-2,-6.0831852E-2,-1.7870313E-2,5.2822944E-2,-6.231721E-2,4.18036E-3,-9.822128E-4,8.83438E-2,5.479747E-2,-7.4351914E-2,-9.811188E-2,-1.1876198E-2,-1.1876198E-2,8.40275E-2,5.479747E-2,-5.977216E-2,1.5752045E-2,9.760537E-2,-3.4100756E-2,5.479747E-2],"categories":[],"categories_nodes":[],"categories_segments":[],"categories_sizes":[],"default_left":[0,0,0,0,0,0,0,0,0,0,0,0,0,0,0,0,0,0,0,0,0,0,0,0,0,0,0,0,0,0,0,0,0,0,0,0,0,0,0,0,0,0,0,0,0,0,0,0,0,0,0,0,0,0,0,0,0,0,0,0,0,0,0,0,0,0,0,0,0],"id":0,"left_children":[1,3,5,7,9,11,13,15,17,19,21,23,25,27,29,31,33,35,37,-1,39,41,43,-1,-1,45,-1,-1,-1,-1,-1,47,49,51,53,55,-1,-1,-1,57,59,61,-1,-1,63,65,67,-1,-1,-1,-1,-1,-1,-1,-1,-1,-1,-1,-1,-1,-1,-1,-1,-1,-1,-1,-1,-1,-1],"loss_changes":[1.387812E3,2.219256E2,3.748639E1,1.1062769E2,2.8316406E1,1.2201477E1,2.4496082E1,3.40876E1,1.461129E1,5.38562E0,3.8077965E1,6.3139277E0,6.7731934E0,4.1263313E0,8.304251E0,8.232277E0,2.038953E1,8.941483E0,2.0272002E0,0E0,4.9292603E0,1.0057003E1,4.8663406E0,0E0,0E0,5.977661E0,0E0,0E0,0E0,0E0,0E0,4.8284225E0,7.2004776E0,2.0579393E1,1.6088871E1,7.408699E0,0E0,0E0,0E0,9.058659E0,2.8234253E0,4.5848246E0,0E0,0E0,9.301765E0,4.1919556E0,3.500853E0,0E0,0E0,0E0,0E0,0E0,0E0,0E0,0E0,0E0,0E0,0E0,0E0,0E0,0E0,0E0,0E0,0E0,0E0,0E0,0E0,0E0,0E0],"parents":[2147483647,0,0,1,1,2,2,3,3,4,4,5,5,6,6,7,7,8,8,9,9,10,10,11,11,12,12,13,13,14,14,15,15,16,16,17,17,18,18,20,20,21,21,22,22,25,25,31,31,32,32,33,33,34,34,35,35,39,39,40,40,41,41,44,44,45,45,46,46],"right_children":[2,4,6,8,10,12,14,16,18,20,22,24,26,28,30,32,34,36,38,-1,40,42,44,-1,-1,46,-1,-1,-1,-1,-1,48,50,52,54,56,-1,-1,-1,58,60,62,-1,-1,64,66,68,-1,-1,-1,-1,-1,-1,-1,-1,-1,-1,-1,-1,-1,-1,-1,-1,-1,-1,-1,-1,-1,-1],"split_conditions":[2.2944905E-1,-3.7223548E-3,-2.4815988E-2,-2.5828538E-2,-7.386598E-2,2.5603332E-2,-7.858177E-2,-7.011828E-2,3.258834E-1,-1.9604701E-1,-9.887773E-2,-5.9120387E-2,3.5195053E-2,4.6056575E-1,-8.14406E-2,7.647407E-2,-4.030846E-2,-8.085579E-3,3.9824075E-1,-8.25041E-4,-1.7918268E-1,1.15280375E-2,-1.3183452E-2,5.479747E-2,-6.0831852E-2,-1.6085874E-2,-1.1876198E-2,-8.295595E-2,1.0348358E-2,8.503549E-2,-3.4100756E-2,-7.849698E-2,1.0392222E-1,-5.7463102E-2,-8.922211E-3,-5.5608843E-2,-3.4100756E-2,1.0348358E-2,-6.0831852E-2,-1.2555203E-1,5.730254E-2,-1.4006856E-1,-5.6325313E-2,-9.463328E-2,-4.248494E-2,-8.443664E-2,1.1673725E-1,-9.364675E-2,-8.25041E-4,5.918177E-2,-6.0831852E-2,-1.7870313E-2,5.2822944E-2,-6.231721E-2,4.18036E-3,-9.822128E-4,8.83438E-2,5.479747E-2,-7.4351914E-2,-9.811188E-2,-1.1876198E-2,-1.1876198E-2,8.40275E-2,5.479747E-2,-5.977216E-2,1.5752045E-2,9.760537E-2,-3.4100756E-2,5.479747E-2],"split_indices":[509,880,244,231,697,614,971,493,816,993,259,989,372,647,554,586,421,192,961,0,1247,65,479,0,0,1196,0,0,0,0,0,174,78,589,972,448,0,0,0,230,153,2,0,0,49,61,322,0,0,0,0,0,0,0,0,0,0,0,0,0,0,0,0,0,0,0,0,0,0],"split_type":[0,0,0,0,0,0,0,0,0,0,0,0,0,0,0,0,0,0,0,0,0,0,0,0,0,0,0,0,0,0,0,0,0,0,0,0,0,0,0,0,0,0,0,0,0,0,0,0,0,0,0,0,0,0,0,0,0,0,0,0,0,0,0,0,0,0,0,0,0],"sum_hessian":[6.516268E2,3.91426E2,2.602008E2,1.5147136E2,2.3995462E2,2.4695331E2,1.3247495E1,1.1697788E2,3.4493477E1,2.0421138E2,3.574324E1,2.74948E0,2.4420383E2,5.748913E0,7.498582E0,2.9494423E1,8.748346E1,3.1743998E1,2.74948E0,1.4997164E0,2.0271167E2,8.24844E0,2.74948E1,1.2497637E0,1.4997164E0,2.4295406E2,1.2497637E0,4.4991493E0,1.2497637E0,6.2488184E0,1.2497637E0,2.649499E1,2.9994328E0,4.4991493E1,4.2491966E1,3.0494234E1,1.2497637E0,1.2497637E0,1.4997164E0,3.9992437E0,1.9871242E2,6.9986763E0,1.2497637E0,1.3997353E1,1.3497448E1,2.4045453E2,2.4995275E0,2.4995274E1,1.4997164E0,1.4997164E0,1.4997164E0,3.0744186E1,1.4247306E1,2.9744375E1,1.2747589E1,2.4995275E0,2.7994705E1,1.2497637E0,2.74948E0,1.9746266E2,1.2497637E0,1.2497637E0,5.748913E0,1.2497637E0,1.2247684E1,1.9996219E0,2.3845491E2,1.2497637E0,1.2497637E0],"tree_param":{"num_deleted":"0","num_feature":"1280","num_nodes":"69","size_leaf_vector":"1"}},{"base_weights":[-3.0924238E-2,-1.2669083E0,1.5527215E0,-5.0137943E-1,-1.7017487E0,1.6898599E0,-1.0272542E0,-1.4850546E0,-8.076905E-2,-1.7790995E0,2.9903382E-2,7.5673485E-1,1.8184974E0,6.5366335E-2,-1.5511471E0,2.937523E-1,-1.8149748E0,-5.535669E-1,6.421952E-1,-1.7959902E0,3.214631E-2,7.528722E-2,-9.7444814E-1,1.1750749E0,-4.4484788E-1,-1.7777004E-3,1.83468E0,1.1308456E-2,-8.8431746E-2,-5.9172418E-2,9.117568E-1,-9.3538836E-2,-1.0722994E-2,-6.757169E-1,9.262446E-1,1.0256387E0,-8.867906E-1,-5.2112395E-1,-1.8281775E0,3.906456E-2,-7.975297E-2,-7.404281E-1,1.539926E0,-1.3579788E0,1.0042077E0,1.8469613E0,-1.4015841E-3,7.634082E-2,-3.2767344E-2,-7.4211024E-2,-2.1114847E-2,7.074101E-2,-1.23045845E-2,-3.1321708E-2,6.5072075E-2,-8.0336936E-2,1.1734629E-2,4.733759E-2,-6.6875994E-2,-9.209215E-2,1.3061302E-2,3.1155348E-2,-7.02168E-2,-3.3232655E-2,8.535492E-2,-1.0214086E-2,-8.026632E-2,6.3916884E-2,9.595026E-3,9.297749E-2,1.3693458E-2],"categories":[],"categories_nodes":[],"categories_segments":[],"categories_sizes":[],"default_left":[0,0,0,0,0,0,0,0,0,0,0,0,0,0,0,0,0,0,0,0,0,0,0,0,0,0,0,0,0,0,0,0,0,0,0,0,0,0,0,0,0,0,0,0,0,0,0,0,0,0,0,0,0,0,0,0,0,0,0,0,0,0,0,0,0,0,0,0,0,0,0],"id":1,"left_children":[1,3,5,7,9,11,13,15,17,19,21,23,25,-1,27,29,31,33,35,37,-1,-1,39,41,43,-1,45,-1,-1,-1,47,-1,-1,49,51,53,55,57,59,-1,-1,61,63,65,67,69,-1,-1,-1,-1,-1,-1,-1,-1,-1,-1,-1,-1,-1,-1,-1,-1,-1,-1,-1,-1,-1,-1,-1,-1,-1],"loss_changes":[1.2481129E3,1.183598E2,1.0063495E2,5.414246E1,3.0588928E1,3.052832E1,2.0043724E1,2.3552528E1,3.2118877E1,1.0083008E1,1.7373903E1,1.7570679E1,7.052368E0,0E0,5.227068E0,7.467175E0,2.5663376E0,1.0878576E1,2.2722137E1,7.951477E0,0E0,0E0,8.865767E0,1.8913254E1,1.3912415E1,0E0,5.333557E0,0E0,0E0,0E0,6.3002567E0,0E0,0E0,1.0227013E1,3.06699E0,1.4579966E1,6.8331056E0,9.346125E0,6.5129395E0,0E0,0E0,5.169792E0,9.127174E0,1.4535408E0,6.9905186E-1,4.033203E0,0E0,0E0,0E0,0E0,0E0,0E0,0E0,0E0,0E0,0E0,0E0,0E0,0E0,0E0,0E0,0E0,0E0,0E0,0E0,0E0,0E0,0E0,0E0,0E0,0E0],"parents":[2147483647,0,0,1,1,2,2,3,3,4,4,5,5,6,6,7,7,8,8,9,9,10,10,11,11,12,12,14,14,15,15,16,16,17,17,18,18,19,19,22,22,23,23,24,24,26,26,30,30,33,33,34,34,35,35,36,36,37,37,38,38,41,41,42,42,43,43,44,44,45,45],"right_children":[2,4,6,8,10,12,14,16,18,20,22,24,26,-1,28,30,32,34,36,38,-1,-1,40,42,44,-1,46,-1,-1,-1,48,-1,-1,50,52,54,56,58,60,-1,-1,62,64,66,68,70,-1,-1,-1,-1,-1,-1,-1,-1,-1,-1,-1,-1,-1,-1,-1,-1,-1,-1,-1,-1,-1,-1,-1,-1,-1],"split_conditions":[-6.8054833E-3,-3.7223548E-3,6.1891414E-2,-9.4103284E-2,1.6684061E-1,5.9337303E-2,7.749781E-2,-9.5763445E-2,6.3835233E-3,8.823236E-1,1.15171865E-1,2.0661214E-1,-7.6714635E-2,6.5366335E-2,-1.2959231E-1,-1.4799352E-1,-7.7810674E-3,2.017947E-2,3.5438873E-3,-1.772111E-1,3.214631E-2,7.528722E-2,1.8351711E-3,-1.0216672E-1,-6.642599E-2,-1.7777004E-3,1.3128366E-1,1.1308456E-2,-8.8431746E-2,-5.9172418E-2,-1.1811716E-1,-9.3538836E-2,-1.0722994E-2,-1.0269272E-1,-2.504401E-2,-1.0555829E-1,-3.1433135E-2,-8.421506E-2,7.7135116E-2,3.906456E-2,-7.975297E-2,-1.4561674E-1,-1.5949795E-1,-7.934429E-2,-6.443377E-2,1.5368137E-1,-1.4015841E-3,7.634082E-2,-3.2767344E-2,-7.4211024E-2,-2.1114847E-2,7.074101E-2,-1.23045845E-2,-3.1321708E-2,6.5072075E-2,-8.0336936E-2,1.1734629E-2,4.733759E-2,-6.6875994E-2,-9.209215E-2,1.3061302E-2,3.1155348E-2,-7.02168E-2,-3.3232655E-2,8.535492E-2,-1.0214086E-2,-8.026632E-2,6.3916884E-2,9.595026E-3,9.297749E-2,1.3693458E-2],"split_indices":[231,880,259,233,1071,1046,350,991,472,868,990,64,321,0,82,698,829,999,257,1247,0,0,1205,271,77,0,455,0,0,0,120,0,0,1171,966,549,451,1130,633,0,0,19,720,617,12,1047,0,0,0,0,0,0,0,0,0,0,0,0,0,0,0,0,0,0,0,0,0,0,0,0,0],"split_type":[0,0,0,0,0,0,0,0,0,0,0,0,0,0,0,0,0,0,0,0,0,0,0,0,0,0,0,0,0,0,0,0,0,0,0,0,0,0,0,0,0,0,0,0,0,0,0,0,0,0,0,0,0,0,0,0,0,0,0,0,0,0,0,0,0,0,0,0,0,0,0],"sum_hessian":[6.3564594E2,3.57123E2,2.7852292E2,1.3014972E2,2.2697327E2,2.6479288E2,1.3730033E1,3.8224335E1,9.192539E1,2.1724196E2,9.731316E0,3.291478E1,2.318781E2,2.242327E0,1.1487706E1,5.997525E0,3.2226807E1,5.5720257E1,3.6205135E1,2.1599413E2,1.2478324E0,3.7385278E0,5.9927883E0,2.4431004E1,8.483778E0,1.9960189E0,2.2988208E2,1.24812E0,1.0239586E1,1.4991628E0,4.4983625E0,3.0977905E1,1.2489029E0,5.197352E1,3.7467415E0,2.9209177E1,6.9959583E0,5.742357E0,2.1025177E2,1.497469E0,4.4953194E0,3.7441995E0,2.0686804E1,5.2428303E0,3.2409482E0,2.2838475E2,1.4973346E0,3.2489264E0,1.2494361E0,1.1244055E1,4.072946E1,2.4986017E0,1.2481399E0,3.9968038E0,2.5212372E1,3.9972134E0,2.9987452E0,1.9952445E0,3.747112E0,2.090033E2,1.248473E0,1.2462023E0,2.4979973E0,1.2483506E0,1.9438454E1,1.2479476E0,3.9948826E0,1.9942385E0,1.2467097E0,2.2639098E2,1.993775E0],"tree_param":{"num_deleted":"0","num_feature":"1280","num_nodes":"71","size_leaf_vector":"1"}},{"base_weights":[2.3119817E-2,-1.1564665E0,1.5231465E0,-4.4322777E-1,-1.6188346E0,1.6473397E0,-5.8871853E-1,-8.988997E-1,3.3715087E-1,-1.7043314E0,-1.9411369E-1,5.4883724E-1,1.7310767E0,-1.2170091E0,1.1025305E0,-1.4803275E0,-5.445112E-1,-7.673257E-1,8.409159E-1,3.2054797E-2,-1.721807E0,-1.1208655E0,1.2508923E0,1.0873795E0,-6.652736E-2,1.7491835E0,-1.6587984E-2,2.479375E-2,-1.5409657E0,9.073838E-3,6.7996435E-2,-1.9138016E-1,-1.6475549E0,7.8351486E-1,-6.7822623E-1,9.27121E-1,-1.1529104E0,1.1855167E0,-7.439437E-1,-1.7594093E0,-7.36724E-1,5.3375203E-2,-8.145862E-2,7.5094104E-2,9.459763E-3,1.5515298E0,-4.9015918E-1,-1.2136421E-2,1.7603157E0,-7.627662E-3,-8.536261E-2,3.725858E-2,-6.139188E-2,-8.7096706E-2,1.3913167E-2,-3.8794078E-2,7.585368E-2,-4.9641844E-2,3.10332E-3,1.0977928E-2,5.9628665E-2,-7.154761E-2,3.7803616E-2,-6.9503034E-3,7.3082305E-2,-7.035511E-2,4.2681E-2,3.5933491E-3,-8.869361E-2,5.3160977E-2,-5.7565015E-2,8.4294565E-3,8.421555E-2,-6.9179334E-2,5.1105212E-2,6.81571E-3,8.8571094E-2],"categories":[],"categories_nodes":[],"categories_segments":[],"categories_sizes":[],"default_left":[0,0,0,0,0,0,0,0,0,0,0,0,0,0,0,0,0,0,0,0,0,0,0,0,0,0,0,0,0,0,0,0,0,0,0,0,0,0,0,0,0,0,0,0,0,0,0,0,0,0,0,0,0,0,0,0,0,0,0,0,0,0,0,0,0,0,0,0,0,0,0,0,0,0,0,0,0],"id":2,"left_children":[1,3,5,7,9,11,13,15,17,19,21,23,25,27,29,31,33,35,37,-1,39,41,43,45,-1,47,-1,-1,49,-1,-1,51,53,55,57,59,61,63,65,67,69,-1,-1,-1,-1,71,73,-1,75,-1,-1,-1,-1,-1,-1,-1,-1,-1,-1,-1,-1,-1,-1,-1,-1,-1,-1,-1,-1,-1,-1,-1,-1,-1,-1,-1,-1],"loss_changes":[1.1346782E3,1.1767041E2,7.5007996E1,5.100014E1,2.615326E1,2.3598206E1,1.8784592E1,1.7796982E1,3.0293152E1,9.505676E0,1.9396835E1,2.206036E1,9.824951E0,7.669422E0,9.317312E-1,6.9288025E0,1.0773249E1,1.2315714E1,2.1128338E1,0E0,6.2506714E0,1.1432475E1,1.2409277E0,1.2754627E1,0E0,5.871338E0,0E0,0E0,2.211855E0,0E0,0E0,5.759672E0,5.8678284E0,7.743039E0,1.239052E1,4.4162083E-1,8.761562E0,1.1481174E1,8.86657E0,5.3062134E0,8.0978775E0,0E0,0E0,0E0,0E0,2.084261E0,7.4722695E0,0E0,4.1642456E0,0E0,0E0,0E0,0E0,0E0,0E0,0E0,0E0,0E0,0E0,0E0,0E0,0E0,0E0,0E0,0E0,0E0,0E0,0E0,0E0,0E0,0E0,0E0,0E0,0E0,0E0,0E0,0E0],"parents":[2147483647,0,0,1,1,2,2,3,3,4,4,5,5,6,6,7,7,8,8,9,9,10,10,11,11,12,12,13,13,14,14,15,15,16,16,17,17,18,18,20,20,21,21,22,22,23,23,25,25,28,28,31,31,32,32,33,33,34,34,35,35,36,36,37,37,38,38,39,39,40,40,45,45,46,46,48,48],"right_children":[2,4,6,8,10,12,14,16,18,20,22,24,26,28,30,32,34,36,38,-1,40,42,44,46,-1,48,-1,-1,50,-1,-1,52,54,56,58,60,62,64,66,68,70,-1,-1,-1,-1,72,74,-1,76,-1,-1,-1,-1,-1,-1,-1,-1,-1,-1,-1,-1,-1,-1,-1,-1,-1,-1,-1,-1,-1,-1,-1,-1,-1,-1,-1,-1],"split_conditions":[3.643176E-2,4.589487E-3,3.9629176E-2,6.3835233E-3,1.5862064E-1,-1.0288017E-1,-7.763266E-2,-8.6042084E-2,-1.3130668E-1,-1.3628401E-1,2.4476515E-2,-1.4095552E-2,1.2619728E-1,-1.2179288E-1,-1.0726601E-1,-9.5763445E-2,-7.3409386E-2,-5.1730882E-2,-9.861607E-3,3.2054797E-2,-1.2167022E-2,-1.7737052E-1,2.929141E-2,-6.1712626E-2,-6.652736E-2,-9.289382E-2,-1.6587984E-2,2.479375E-2,-1.1161856E-1,9.073838E-3,6.7996435E-2,-6.321128E-2,-2.4330355E-2,-1.2350104E-1,-1.3030807E-2,-9.190847E-2,-4.548502E-2,-5.2551404E-2,-5.0001614E-2,-1.8952364E-1,-1.017504E-1,5.3375203E-2,-8.145862E-2,7.5094104E-2,9.459763E-3,-1.4955354E-1,-9.236106E-2,-1.2136421E-2,-1.1645521E-1,-7.627662E-3,-8.536261E-2,3.725858E-2,-6.139188E-2,-8.7096706E-2,1.3913167E-2,-3.8794078E-2,7.585368E-2,-4.9641844E-2,3.10332E-3,1.0977928E-2,5.9628665E-2,-7.154761E-2,3.7803616E-2,-6.9503034E-3,7.3082305E-2,-7.035511E-2,4.2681E-2,3.5933491E-3,-8.869361E-2,5.3160977E-2,-5.7565015E-2,8.4294565E-3,8.421555E-2,-6.9179334E-2,5.1105212E-2,6.81571E-3,8.8571094E-2],"split_indices":[152,880,259,472,562,438,482,233,519,27,1035,1007,455,603,284,991,193,1222,1129,0,21,1092,402,244,0,647,0,0,375,0,0,779,1003,1140,429,745,1244,448,679,1102,425,0,0,0,0,848,364,0,1271,0,0,0,0,0,0,0,0,0,0,0,0,0,0,0,0,0,0,0,0,0,0,0,0,0,0,0,0],"split_type":[0,0,0,0,0,0,0,0,0,0,0,0,0,0,0,0,0,0,0,0,0,0,0,0,0,0,0,0,0,0,0,0,0,0,0,0,0,0,0,0,0,0,0,0,0,0,0,0,0,0,0,0,0,0,0,0,0,0,0,0,0,0,0,0,0,0,0,0,0,0,0,0,0,0,0,0,0],"sum_hessian":[6.3927905E2,3.579917E2,2.8128735E2,1.4156905E2,2.1642265E2,2.6587207E2,1.5415276E1,8.928351E1,5.228553E1,2.0398532E2,1.2437324E1,1.9366547E1,2.4650554E2,1.1444215E1,3.9710608E0,3.2608013E1,5.66755E1,1.621402E1,3.607151E1,1.2447128E0,2.0274062E2,7.714172E0,4.7231517E0,1.5380611E1,3.9859347E0,2.4451135E2,1.9941797E0,1.7357816E0,9.708433E0,1.2397779E0,2.731283E0,3.990978E0,2.8617035E1,4.739942E0,5.1935555E1,2.745315E0,1.3468705E1,2.9836124E1,6.235385E0,1.9452905E2,8.211556E0,1.2467089E0,6.467463E0,3.484739E0,1.2384126E0,1.1896777E1,3.4838345E0,1.2432841E0,2.4326807E2,1.2434703E0,8.464963E0,2.2441683E0,1.7468097E0,2.7371134E1,1.2459012E0,1.4979373E0,3.2420046E0,3.6207077E1,1.5728479E1,1.2474232E0,1.4978919E0,1.1974971E1,1.4937341E0,5.2327137E0,2.460341E1,4.49055E0,1.7448347E0,1.4931982E0,1.9303586E2,1.2443662E0,6.9671907E0,1.2410189E0,1.0655758E1,2.2434938E0,1.2403407E0,1.7424991E0,2.4152557E2],"tree_param":{"num_deleted":"0","num_feature":"1280","num_nodes":"77","size_leaf_vector":"1"}},{"base_weights":[1.6597154E-2,-1.1445698E0,1.4665519E0,-4.112102E-1,-1.5813464E0,1.5708461E0,-8.297001E-1,-6.083898E-1,1.3174093E0,-1.6335622E0,3.2789248E-1,3.843848E-1,1.6519651E0,6.235987E-2,-1.3805194E0,-2.2938478E-1,-1.004597E0,-2.1915719E-2,8.4604144E-2,3.1898674E-2,-1.6577605E0,1.0871702E0,-5.831594E-2,9.5704025E-1,-9.061582E-1,3.9011213E-1,1.6859795E0,-8.1121854E-2,1.2543174E-2,-8.914648E-1,4.982907E-1,-1.3927549E0,-4.6644217E-1,-1.0302862E0,-1.7160347E0,6.67975E-2,9.219209E-3,-3.3047763E-1,7.451781E-2,-6.927057E-2,2.8555501E-2,-5.8617678E-2,7.202556E-2,2.9780213E-3,1.6972806E0,-2.666153E-2,-7.957475E-2,5.3489864E-2,-1.7586922E-2,-4.1930158E-2,-8.474297E-2,5.043028E-2,-4.0055193E-2,-7.983208E-2,1.1864268E-2,-8.627066E-2,-7.105425E-3,5.4244813E-2,-6.565218E-2,8.542339E-2,1.0915425E-2],"categories":[],"categories_nodes":[],"categories_segments":[],"categories_sizes":[],"default_left":[0,0,0,0,0,0,0,0,0,0,0,0,0,0,0,0,0,0,0,0,0,0,0,0,0,0,0,0,0,0,0,0,0,0,0,0,0,0,0,0,0,0,0,0,0,0,0,0,0,0,0,0,0,0,0,0,0,0,0,0,0],"id":3,"left_children":[1,3,5,7,9,11,13,15,17,19,21,23,25,-1,27,29,31,-1,-1,-1,33,35,-1,37,39,41,43,-1,-1,45,47,49,51,53,55,-1,-1,57,-1,-1,-1,-1,-1,-1,59,-1,-1,-1,-1,-1,-1,-1,-1,-1,-1,-1,-1,-1,-1,-1,-1],"loss_changes":[1.0643021E3,1.1179199E2,6.862506E1,4.592405E1,2.2433472E1,2.5278137E1,1.644209E1,1.7716114E1,9.865944E0,1.2819214E1,8.846854E0,1.4564123E1,1.0145874E1,0E0,4.608103E0,3.0496756E1,1.1494007E1,0E0,0E0,0E0,5.9838257E0,8.647423E-1,0E0,9.641175E0,5.1877575E0,1.4667477E1,4.3984985E0,0E0,0E0,7.4318886E0,1.512435E1,4.1485596E0,1.3575523E1,1.5108414E1,2.5960083E0,0E0,0E0,7.989883E0,0E0,0E0,0E0,0E0,0E0,0E0,3.6487427E0,0E0,0E0,0E0,0E0,0E0,0E0,0E0,0E0,0E0,0E0,0E0,0E0,0E0,0E0,0E0,0E0],"parents":[2147483647,0,0,1,1,2,2,3,3,4,4,5,5,6,6,7,7,8,8,9,9,10,10,11,11,12,12,14,14,15,15,16,16,20,20,21,21,23,23,24,24,25,25,26,26,29,29,30,30,31,31,32,32,33,33,34,34,37,37,44,44],"right_children":[2,4,6,8,10,12,14,16,18,20,22,24,26,-1,28,30,32,-1,-1,-1,34,36,-1,38,40,42,44,-1,-1,46,48,50,52,54,56,-1,-1,58,-1,-1,-1,-1,-1,-1,60,-1,-1,-1,-1,-1,-1,-1,-1,-1,-1,-1,-1,-1,-1,-1,-1],"split_conditions":[-6.8054833E-3,1.1005317E-1,9.1339394E-2,1.4626436E-2,2.4449037E-1,-7.5445734E-2,1.08600825E-1,-6.363131E-2,-5.2482437E-2,-1.6071273E-1,1.3795644E-1,-5.5967674E-2,-5.867849E-2,6.235987E-2,1.4229147E0,-1.19744E-1,-1.3864726E-2,-2.1915719E-2,8.4604144E-2,3.1898674E-2,-1.4836055E-1,1.539491E-1,-5.831594E-2,-1.1876131E-1,-2.0379895E-2,1.6323073E-1,-9.251846E-2,-8.1121854E-2,1.2543174E-2,-5.128677E-2,-3.6390148E-2,1.8650064E-2,-6.643224E-2,-6.65682E-2,2.1214963E-1,6.67975E-2,9.219209E-3,-6.034112E-2,7.451781E-2,-6.927057E-2,2.8555501E-2,-5.8617678E-2,7.202556E-2,2.9780213E-3,7.2832704E-1,-2.666153E-2,-7.957475E-2,5.3489864E-2,-1.7586922E-2,-4.1930158E-2,-8.474297E-2,5.043028E-2,-4.0055193E-2,-7.983208E-2,1.1864268E-2,-8.627066E-2,-7.105425E-3,5.4244813E-2,-6.565218E-2,8.542339E-2,1.0915425E-2],"split_indices":[231,78,259,815,509,681,350,1268,788,244,468,244,815,0,551,294,999,0,0,0,1273,116,0,221,1037,981,1163,0,0,899,538,477,259,1071,1059,0,0,352,0,0,0,0,0,0,742,0,0,0,0,0,0,0,0,0,0,0,0,0,0,0,0],"split_type":[0,0,0,0,0,0,0,0,0,0,0,0,0,0,0,0,0,0,0,0,0,0,0,0,0,0,0,0,0,0,0,0,0,0,0,0,0,0,0,0,0,0,0,0,0,0,0,0,0,0,0,0,0,0,0,0,0,0,0,0,0],"sum_hessian":[6.301467E2,3.500372E2,2.8010956E2,1.3138306E2,2.1865413E2,2.682421E2,1.1867455E1,1.1851265E2,1.287041E1,2.1297389E2,5.680232E0,1.7533445E1,2.5070866E2,2.2226312E0,9.644824E0,6.137823E1,5.713442E1,2.2336507E0,1.063676E1,1.9775075E0,2.1099638E2,3.946994E0,1.733238E0,1.23235235E1,5.2099233E0,6.907988E0,2.4380067E2,8.404068E0,1.2407556E0,3.2019764E1,2.9358467E1,3.227048E1,2.486394E1,1.951767E1,1.9147871E2,2.7181487E0,1.2288454E0,3.7209153E0,8.602608E0,3.9806929E0,1.2292302E0,2.7304091E0,4.177579E0,1.7256192E0,2.4207506E2,2.2346079E1,9.673685E0,1.7400747E1,1.195772E1,1.2717879E1,1.95526E1,4.2255754E0,2.0638363E1,1.3310766E1,6.2069035E0,1.9024884E2,1.2298802E0,1.4819864E0,2.238929E0,2.4010371E2,1.9713448E0],"tree_param":{"num_deleted":"0","num_feature":"1280","num_nodes":"61","size_leaf_vector":"1"}},{"base_weights":[1.3040475E-2,-1.0749979E0,1.405977E0,-3.570663E-1,-1.5084652E0,-3.382912E-2,1.5398233E0,-7.086365E-1,7.012332E-1,8.6048976E-2,-1.5646194E0,8.559271E-1,-1.1267425E0,1.5698649E0,-5.3214848E-2,-1.427518E0,-5.0792444E-1,-5.384246E-1,1.259383E0,-6.457345E-2,1.0627667E0,-1.6197059E0,-6.0389525E-1,-6.319612E-1,1.4042236E0,3.3300217E-2,-1.4609501E0,1.593559E0,-3.0384007E-1,6.456827E-2,-1.6265208E0,4.8562923E-1,-6.5521413E-1,9.391725E-1,-1.4034035E0,1.3881422E0,-1.9450221E-2,7.321682E-2,-9.1271205E-3,2.39657E-2,-1.637924E0,4.604817E-1,-7.1084104E-2,-6.3324146E-2,2.8633868E-2,7.760712E-2,7.4882433E-3,-8.074857E-2,-1.0183546E-2,1.627438E0,3.671246E-1,-5.9269678E-2,4.6229854E-2,-4.9767107E-2,5.4475036E-2,-8.3680764E-2,-2.6024574E-2,-5.993248E-2,4.673735E-2,-4.1265156E-2,1.455562E-2,6.8941064E-2,-8.370425E-3,-8.045027E-2,-9.791336E-3,-1.1069823E-2,7.474676E-2,-2.0586288E-2,-8.2795374E-2,-5.2147683E-2,5.587051E-2,-3.3045304E-3,8.208686E-2,-5.2129205E-2,5.542595E-2],"categories":[],"categories_nodes":[],"categories_segments":[],"categories_sizes":[],"default_left":[0,0,0,0,0,0,0,0,0,0,0,0,0,0,0,0,0,0,0,0,0,0,0,0,0,0,0,0,0,0,0,0,0,0,0,0,0,0,0,0,0,0,0,0,0,0,0,0,0,0,0,0,0,0,0,0,0,0,0,0,0,0,0,0,0,0,0,0,0,0,0,0,0,0,0],"id":4,"left_children":[1,3,5,7,9,11,13,15,17,19,21,23,25,27,-1,29,31,33,35,-1,37,39,41,43,45,-1,47,49,51,53,55,57,59,61,63,65,-1,-1,-1,-1,67,69,-1,-1,-1,-1,-1,-1,-1,71,73,-1,-1,-1,-1,-1,-1,-1,-1,-1,-1,-1,-1,-1,-1,-1,-1,-1,-1,-1,-1,-1,-1,-1,-1],"loss_changes":[9.4646643E2,1.08576904E2,5.2830383E1,5.009758E1,1.9682495E1,2.4567549E1,2.1275574E1,1.3785366E1,2.402716E1,1.2640397E1,1.0185547E1,1.2266294E1,7.757988E0,1.1500793E1,0E0,6.4585037E0,1.2050045E1,1.5603528E1,5.542267E0,0E0,2.9921665E0,8.391296E0,1.19996395E1,4.1233025E0,1.7163715E0,0E0,1.5800724E0,9.59082E0,5.361274E0,4.8646545E0,1.1426926E-1,9.384187E0,1.1546677E1,2.5301504E0,1.534853E0,4.12619E0,0E0,0E0,0E0,0E0,3.671692E0,7.504537E0,0E0,0E0,0E0,0E0,0E0,0E0,0E0,5.879944E0,9.394368E0,0E0,0E0,0E0,0E0,0E0,0E0,0E0,0E0,0E0,0E0,0E0,0E0,0E0,0E0,0E0,0E0,0E0,0E0,0E0,0E0,0E0,0E0,0E0,0E0],"parents":[2147483647,0,0,1,1,2,2,3,3,4,4,5,5,6,6,7,7,8,8,9,9,10,10,11,11,12,12,13,13,15,15,16,16,17,17,18,18,20,20,21,21,22,22,23,23,24,24,26,26,27,27,28,28,29,29,30,30,31,31,32,32,33,33,34,34,35,35,40,40,41,41,49,49,50,50],"right_children":[2,4,6,8,10,12,14,16,18,20,22,24,26,28,-1,30,32,34,36,-1,38,40,42,44,46,-1,48,50,52,54,56,58,60,62,64,66,-1,-1,-1,-1,68,70,-1,-1,-1,-1,-1,-1,-1,72,74,-1,-1,-1,-1,-1,-1,-1,-1,-1,-1,-1,-1,-1,-1,-1,-1,-1,-1,-1,-1,-1,-1,-1,-1],"split_conditions":[3.643176E-2,5.243343E-2,-1.3497615E-1,9.9064216E-2,-1.7685124E-1,-6.696026E-2,2.2513667E-1,-1.0099645E-1,-1.0501785E-1,-1.0367557E-1,1.5259185E-1,5.4921634E-2,-1.0173643E-1,1.0976778E-1,-5.3214848E-2,-1.0587074E-1,-5.516189E-2,-5.5876218E-2,-3.76968E-2,-6.457345E-2,1.0227844E-2,-1.9279245E-1,-6.9140814E-2,1.0936649E0,5.4105866E-1,3.3300217E-2,3.0115622E-1,1.5619334E-2,2.793058E-1,-8.630229E-2,-3.26974E-2,-1.3470253E-1,-5.8991946E-3,-1.1677745E-1,2.1799451E-1,-1.13457814E-1,-1.9450221E-2,7.321682E-2,-9.1271205E-3,2.39657E-2,-1.7302792E-1,-7.6177925E-2,-7.1084104E-2,-6.3324146E-2,2.8633868E-2,7.760712E-2,7.4882433E-3,-8.074857E-2,-1.0183546E-2,-4.485697E-2,-6.914387E-2,-5.9269678E-2,4.6229854E-2,-4.9767107E-2,5.4475036E-2,-8.3680764E-2,-2.6024574E-2,-5.993248E-2,4.673735E-2,-4.1265156E-2,1.455562E-2,6.8941064E-2,-8.370425E-3,-8.045027E-2,-9.791336E-3,-1.1069823E-2,7.474676E-2,-2.0586288E-2,-8.2795374E-2,-5.2147683E-2,5.587051E-2,-3.3045304E-3,8.208686E-2,-5.2129205E-2,5.542595E-2],"split_indices":[152,78,952,493,686,1273,1007,233,519,663,509,47,165,62,0,745,478,342,395,0,290,379,784,812,1255,0,998,244,966,341,588,280,535,755,265,664,0,0,0,0,746,511,0,0,0,0,0,0,0,696,677,0,0,0,0,0,0,0,0,0,0,0,0,0,0,0,0,0,0,0,0,0,0,0,0],"split_type":[0,0,0,0,0,0,0,0,0,0,0,0,0,0,0,0,0,0,0,0,0,0,0,0,0,0,0,0,0,0,0,0,0,0,0,0,0,0,0,0,0,0,0,0,0,0,0,0,0,0,0,0,0,0,0,0,0,0,0,0,0,0,0,0,0,0,0,0,0,0,0,0,0,0,0],"sum_hessian":[6.224988E2,3.496284E2,2.728704E2,1.3231125E2,2.1731714E2,2.3272415E1,2.4959796E2,9.956564E1,3.27456E1,7.3748183E0,2.0994232E2,1.2948057E1,1.0324358E1,2.4714403E2,2.4539363E0,2.0397297E1,7.916834E1,1.0177214E1,2.2568386E1,2.925945E0,4.4488735E0,1.979086E2,1.2033714E1,3.4455168E0,9.502541E0,1.4662672E0,8.85809E0,2.4420541E2,2.93862E0,2.4797945E0,1.7917503E1,9.924536E0,6.924381E1,3.7261894E0,6.451025E0,2.1079683E1,1.4887034E0,3.231079E0,1.2177943E0,1.4851428E0,1.9642346E2,5.418401E0,6.6153135E0,2.223166E0,1.2223508E0,8.28797E0,1.214571E0,7.6379213E0,1.2201694E0,2.3732268E2,6.882738E0,1.7312653E0,1.2073549E0,1.2332883E0,1.2465063E0,1.6693521E1,1.2239805E0,1.737958E0,8.186578E0,5.880273E1,1.0441078E1,2.4906325E0,1.2355568E0,5.2284117E0,1.2226131E0,1.2448394E0,1.9834843E1,3.1844962E0,1.9323897E2,1.4689547E0,3.9494462E0,1.9567331E0,2.3536594E2,2.232173E0,4.6505656E0],"tree_param":{"num_deleted":"0","num_feature":"1280","num_nodes":"75","size_leaf_vector":"1"}},{"base_weights":[2.0331137E-2,-1.0133862E0,1.3977633E0,-2.725055E-1,-1.4688134E0,-3.277986E-1,1.503728E0,-6.8674135E-1,7.4462444E-1,-1.5189954E0,7.291831E-2,1.1300972E0,-1.105026E0,1.5567335E0,1.2130919E-1,-1.6615988E-1,-1.1061928E0,1.1626756E0,-6.208403E-1,-1.5639812E0,-7.882288E-1,5.7958663E-2,-5.7491083E-2,4.8785578E-3,6.832465E-2,-7.595318E-2,3.724457E-2,1.5708779E0,-2.2216564E-2,6.265746E-2,-9.326696E-1,-8.892907E-1,3.98632E-1,-1.2071582E0,3.5605785E-1,1.3159219E0,-4.4454392E-2,-1.235174E0,7.258024E-1,8.6531835E-3,-1.5777963E0,3.8786057E-2,-1.1413084E0,1.5851214E0,-1.2859455E-2,-7.1518004E-2,2.7535765E-2,3.896459E-2,-5.341353E-2,3.753077E-2,-4.0889487E-2,-6.336104E-2,3.1850692E-2,6.364136E-2,-5.1297277E-2,-1.8260887E-2,7.261138E-2,1.1676765E-2,-7.886381E-2,-1.0731044E-2,6.4164445E-2,-8.016259E-2,-2.4042213E-2,-7.849171E-2,-1.3520703E-2,-5.42116E-3,7.980991E-2],"categories":[],"categories_nodes":[],"categories_segments":[],"categories_sizes":[],"default_left":[0,0,0,0,0,0,0,0,0,0,0,0,0,0,0,0,0,0,0,0,0,0,0,0,0,0,0,0,0,0,0,0,0,0,0,0,0,0,0,0,0,0,0,0,0,0,0,0,0,0,0,0,0,0,0,0,0,0,0,0,0,0,0,0,0,0,0],"id":5,"left_children":[1,3,5,7,9,11,13,15,17,19,21,23,25,27,29,31,33,35,37,39,41,-1,-1,-1,-1,-1,-1,43,-1,-1,45,47,49,51,53,55,-1,57,59,-1,61,-1,63,65,-1,-1,-1,-1,-1,-1,-1,-1,-1,-1,-1,-1,-1,-1,-1,-1,-1,-1,-1,-1,-1,-1,-1],"loss_changes":[8.767964E2,1.1830069E2,4.8763916E1,5.745568E1,1.6948975E1,1.9485905E1,1.8049377E1,2.0900944E1,2.3322857E1,5.6979065E0,1.17126E1,1.3534012E0,9.559589E0,7.4802246E0,1.3426827E1,1.8432251E1,8.298462E0,1.0810432E1,9.113435E0,5.014618E0,8.74962E0,0E0,0E0,0E0,0E0,0E0,0E0,6.6089478E0,0E0,0E0,5.139131E0,6.7217474E0,1.1550239E1,6.354683E0,6.645669E0,7.160328E0,0E0,3.9814043E0,2.2369823E0,0E0,4.7055054E0,0E0,4.0626163E0,4.6088257E0,0E0,0E0,0E0,0E0,0E0,0E0,0E0,0E0,0E0,0E0,0E0,0E0,0E0,0E0,0E0,0E0,0E0,0E0,0E0,0E0,0E0,0E0,0E0],"parents":[2147483647,0,0,1,1,2,2,3,3,4,4,5,5,6,6,7,7,8,8,9,9,10,10,11,11,12,12,13,13,14,14,15,15,16,16,17,17,18,18,19,19,20,20,27,27,30,30,31,31,32,32,33,33,34,34,35,35,37,37,38,38,40,40,42,42,43,43],"right_children":[2,4,6,8,10,12,14,16,18,20,22,24,26,28,30,32,34,36,38,40,42,-1,-1,-1,-1,-1,-1,44,-1,-1,46,48,50,52,54,56,-1,58,60,-1,62,-1,64,66,-1,-1,-1,-1,-1,-1,-1,-1,-1,-1,-1,-1,-1,-1,-1,-1,-1,-1,-1,-1,-1,-1,-1],"split_conditions":[9.08505E-2,4.900303E-4,-1.8267691E-2,-5.1122442E-2,2.3522116E-1,-1.3185412E-1,3.9629176E-2,-4.385312E-2,-4.8572095E-3,-1.4765494E-2,-8.330363E-2,-1.2494792E-1,4.2027354E-2,7.901704E-2,4.2720795E-2,-1.19744E-1,-2.2008868E-2,6.220442E-2,-5.0357584E-2,-2.1109432E-1,-8.3491296E-2,5.7958663E-2,-5.7491083E-2,4.8785578E-3,6.832465E-2,-7.595318E-2,3.724457E-2,-6.599712E-2,-2.2216564E-2,6.265746E-2,6.7522675E-1,-1.8481028E-1,7.364001E-3,-6.697038E-2,-5.506807E-2,-9.814745E-2,-4.4454392E-2,-7.782794E-2,-1.0087281E-2,8.6531835E-3,4.6042788E-1,3.8786057E-2,-4.594856E-3,-1.2333999E-1,-1.2859455E-2,-7.1518004E-2,2.7535765E-2,3.896459E-2,-5.341353E-2,3.753077E-2,-4.0889487E-2,-6.336104E-2,3.1850692E-2,6.364136E-2,-5.1297277E-2,-1.8260887E-2,7.261138E-2,1.1676765E-2,-7.886381E-2,-1.0731044E-2,6.4164445E-2,-8.016259E-2,-2.4042213E-2,-7.849171E-2,-1.3520703E-2,-5.42116E-3,7.980991E-2],"split_indices":[356,880,1035,231,509,259,259,89,1129,32,784,1266,1048,1141,639,294,356,1105,1247,939,1123,0,0,0,0,0,0,729,0,0,999,138,1277,985,324,1031,0,1,962,0,245,0,109,846,0,0,0,0,0,0,0,0,0,0,0,0,0,0,0,0,0,0,0,0,0,0,0],"split_type":[0,0,0,0,0,0,0,0,0,0,0,0,0,0,0,0,0,0,0,0,0,0,0,0,0,0,0,0,0,0,0,0,0,0,0,0,0,0,0,0,0,0,0,0,0,0,0,0,0,0,0,0,0,0,0,0,0,0,0,0,0,0,0,0,0,0,0],"sum_hessian":[6.137868E2,3.5079272E2,2.6299408E2,1.3415315E2,2.1663957E2,1.5094653E1,2.4789943E2,9.556019E1,3.859297E1,2.098247E2,6.8148613E0,5.0910425E0,1.000361E1,2.3862389E2,9.275538E0,4.326282E1,5.2297367E1,2.966059E1,8.932384E0,1.9658295E2,1.324176E1,3.6363745E0,3.178487E0,1.2116337E0,3.879409E0,8.320266E0,1.6833445E0,2.3716249E2,1.4614016E0,4.381448E0,4.894091E0,1.872006E1,2.454276E1,4.9082756E1,3.2146087E0,2.7932917E1,1.7276725E0,6.1908946E0,2.741489E0,1.4601929E0,1.9512276E2,2.218408E0,1.1023353E1,2.3546078E2,1.7017006E0,3.6913514E0,1.2027395E0,1.4885578E0,1.7231503E1,1.9331839E1,5.2109222E0,4.7837593E1,1.2451636E0,1.9800899E0,1.2345188E0,1.9689734E0,2.5963943E1,1.2295512E0,4.9613433E0,1.2492131E0,1.492276E0,1.9024641E2,4.876341E0,6.85016E0,4.173192E0,1.4729415E0,2.3398784E2],"tree_param":{"num_deleted":"0","num_feature":"1280","num_nodes":"67","size_leaf_vector":"1"}},{"base_weights":[1.2878103E-2,-1.023964E0,1.3140372E0,-5.7003516E-1,-1.5131757E0,1.4135656E0,-8.409196E-1,-1.3430405E0,-2.394126E-1,-1.551092E0,-4.651137E-1,5.0902337E-1,1.5002277E0,-7.673414E-2,8.37213E-1,-2.0794447E-1,-1.5158924E0,3.3195096E-1,-6.089214E-1,-1.2311877E-2,-1.5679468E0,-6.653559E-2,8.24156E-1,1.0892279E0,-9.55736E-1,1.5306753E0,-1.6493398E-1,5.422906E-2,5.14388E-3,5.0445348E-2,-8.405253E-1,-4.352797E-3,-1.553278E0,-8.2066976E-2,9.892706E-1,-8.308236E-1,1.5432596E-1,-8.5553E-3,-1.5800552E0,5.5010468E-2,8.551577E-3,-3.0856729E-2,1.2530398E0,2.7850468E-2,-6.7267194E-2,1.5484204E0,-1.8075332E-2,4.4635847E-2,-6.2003296E-2,-6.827022E-2,3.1432964E-2,-1.0165597E-2,-7.9715006E-2,-2.4019042E-2,4.562796E-2,-3.0232212E-2,6.1503E-2,2.624878E-4,-5.5726737E-2,3.7951283E-2,-4.7499366E-2,-7.9538524E-2,-2.830338E-2,7.248534E-2,-7.152617E-3,-1.42119005E-2,7.7976145E-2],"categories":[],"categories_nodes":[],"categories_segments":[],"categories_sizes":[],"default_left":[0,0,0,0,0,0,0,0,0,0,0,0,0,0,0,0,0,0,0,0,0,0,0,0,0,0,0,0,0,0,0,0,0,0,0,0,0,0,0,0,0,0,0,0,0,0,0,0,0,0,0,0,0,0,0,0,0,0,0,0,0,0,0,0,0,0,0],"id":6,"left_children":[1,3,5,7,9,11,13,15,17,19,21,23,25,-1,27,29,31,33,35,-1,37,-1,39,41,43,45,47,-1,-1,-1,49,-1,51,53,55,57,59,-1,61,-1,-1,-1,63,-1,-1,65,-1,-1,-1,-1,-1,-1,-1,-1,-1,-1,-1,-1,-1,-1,-1,-1,-1,-1,-1,-1,-1],"loss_changes":[8.1534454E2,7.383002E1,5.8672455E1,4.4677547E1,5.687561E0,1.9347534E1,1.578998E1,9.991379E0,2.6495752E1,3.02771E0,8.974781E0,2.1390476E1,1.2096619E1,0E0,6.679237E-1,7.083896E0,2.2915115E0,1.3568077E1,1.2997166E1,0E0,2.3183289E0,0E0,4.3443274E-1,5.6979866E0,5.067299E0,8.266174E0,6.9036236E0,0E0,0E0,0E0,5.389403E0,0E0,2.1242142E0,1.2850442E1,8.123554E0,1.4006702E1,1.2713217E1,0E0,7.468262E-1,0E0,0E0,0E0,4.71163E0,0E0,0E0,5.0736694E0,0E0,0E0,0E0,0E0,0E0,0E0,0E0,0E0,0E0,0E0,0E0,0E0,0E0,0E0,0E0,0E0,0E0,0E0,0E0,0E0,0E0],"parents":[2147483647,0,0,1,1,2,2,3,3,4,4,5,5,6,6,7,7,8,8,9,9,10,10,11,11,12,12,14,14,15,15,16,16,17,17,18,18,20,20,22,22,23,23,24,24,25,25,26,26,30,30,32,32,33,33,34,34,35,35,36,36,38,38,42,42,45,45],"right_children":[2,4,6,8,10,12,14,16,18,20,22,24,26,-1,28,30,32,34,36,-1,38,-1,40,42,44,46,48,-1,-1,-1,50,-1,52,54,56,58,60,-1,62,-1,-1,-1,64,-1,-1,66,-1,-1,-1,-1,-1,-1,-1,-1,-1,-1,-1,-1,-1,-1,-1,-1,-1,-1,-1,-1,-1],"split_conditions":[-6.8054833E-3,-1.3607005E-2,6.5856464E-2,-9.4103284E-2,-1.6205978E-2,1.12068646E-1,9.462461E-2,-9.384912E-2,-6.598595E-2,-2.0987034E-1,9.732483E-2,2.3991343E-1,2.6232664E-2,-7.673414E-2,6.999745E-1,-5.4945298E-2,-1.8284893E-1,-4.934844E-2,-6.117099E-3,-1.2311877E-2,-1.7802745E-1,-6.653559E-2,-7.298647E-2,-1.1772199E-1,-5.220297E-2,1.6907229E-1,-1.0779691E-1,5.422906E-2,5.14388E-3,5.0445348E-2,-6.886625E-2,-4.352797E-3,-1.8085426E-1,-4.8868738E-2,-8.614038E-2,-3.457622E-2,-5.8525056E-4,-8.5553E-3,3.4307706E-1,5.5010468E-2,8.551577E-3,-3.0856729E-2,-4.5929093E-2,2.7850468E-2,-6.7267194E-2,-1.6492319E-1,-1.8075332E-2,4.4635847E-2,-6.2003296E-2,-6.827022E-2,3.1432964E-2,-1.0165597E-2,-7.9715006E-2,-2.4019042E-2,4.562796E-2,-3.0232212E-2,6.1503E-2,2.624878E-4,-5.5726737E-2,3.7951283E-2,-4.7499366E-2,-7.9538524E-2,-2.830338E-2,7.248534E-2,-7.152617E-3,-1.42119005E-2,7.7976145E-2],"split_indices":[231,62,252,233,326,801,969,991,773,814,409,983,1235,0,44,1016,326,585,232,0,1110,0,967,694,1216,1007,515,0,0,0,262,0,1197,169,295,122,1133,0,103,0,0,0,987,0,0,928,0,0,0,0,0,0,0,0,0,0,0,0,0,0,0,0,0,0,0,0,0],"split_type":[0,0,0,0,0,0,0,0,0,0,0,0,0,0,0,0,0,0,0,0,0,0,0,0,0,0,0,0,0,0,0,0,0,0,0,0,0,0,0,0,0,0,0,0,0,0,0,0,0,0,0,0,0,0,0,0,0,0,0,0,0,0,0,0,0,0,0],"sum_hessian":[6.0236597E2,3.3535104E2,2.6701495E2,1.7507137E2,1.6027968E2,2.5555592E2,1.1459024E1,5.1530167E1,1.2354121E2,1.5422041E2,6.0592675E0,2.2944489E1,2.3261143E2,8.167818E0,3.2912061E0,7.1011086E0,4.4429058E1,4.8558254E1,7.4982956E1,2.16572E0,1.5205469E2,3.6060624E0,2.453205E0,1.6618233E1,6.326256E0,2.285138E2,4.097637E0,2.1051197E0,1.1860864E0,2.2253852E0,4.8757234E0,1.2177228E0,4.3211334E1,3.0329885E1,1.8228367E1,5.8024654E1,1.6958296E1,1.4367856E0,1.506179E2,1.24321E0,1.209995E0,1.2132249E0,1.5405007E1,1.2076399E0,5.118616E0,2.2657065E2,1.9431366E0,2.1511405E0,1.9464967E0,3.6443763E0,1.2313471E0,1.4500108E0,4.1761322E1,2.2026176E1,8.303709E0,2.1940012E0,1.6034367E1,1.4949934E1,4.3074722E1,1.1159986E1,5.798311E0,1.4848004E2,2.1378706E0,1.3469202E1,1.9358058E0,1.2161729E0,2.2535448E2],"tree_param":{"num_deleted":"0","num_feature":"1280","num_nodes":"67","size_leaf_vector":"1"}},{"base_weights":[-2.6567845E-2,-9.640794E-1,1.2830406E0,-3.0019158E-1,-1.3662318E0,2.0311579E-1,1.4444647E0,-6.032992E-1,6.009152E-1,4.0005103E-1,-1.4100043E0,8.1139857E-1,-1.001222E0,1.4738331E0,-6.771205E-1,-1.1915264E0,-3.8589317E-1,-7.593284E-1,1.159347E0,5.895874E-2,-5.1833075E-2,-1.4377823E0,3.5194644E-1,-1.2610057E-1,1.3107564E0,-7.28556E-2,5.7207215E-1,1.5064301E0,2.7581668E-1,7.5394697E-3,-5.6774408E-2,-1.3333015E0,1.9578464E-2,1.8021576E-1,-6.973269E-1,3.584095E-2,-1.2382702E0,1.3105339E0,-3.7136275E-2,-1.4566305E0,1.4157689E-1,-4.556648E-2,5.8984082E-2,-9.416019E-1,4.9459927E-2,-4.0298076E-3,7.31538E-2,4.456225E-2,-5.644797E-4,1.5186489E0,-2.6407215E-4,5.4423403E-2,-5.0612528E-2,-7.148552E-2,-7.2424667E-4,-3.6175102E-2,3.1568605E-2,-5.1740117E-2,1.6246295E-3,-7.644374E-2,1.2625079E-2,-2.1204762E-2,7.2464176E-2,-7.875832E-3,-7.3846795E-2,-4.2269487E-2,5.168401E-2,2.7129594E-2,-7.33351E-2,7.6349474E-2,9.60895E-4],"categories":[],"categories_nodes":[],"categories_segments":[],"categories_sizes":[],"default_left":[0,0,0,0,0,0,0,0,0,0,0,0,0,0,0,0,0,0,0,0,0,0,0,0,0,0,0,0,0,0,0,0,0,0,0,0,0,0,0,0,0,0,0,0,0,0,0,0,0,0,0,0,0,0,0,0,0,0,0,0,0,0,0,0,0,0,0,0,0,0,0],"id":7,"left_children":[1,3,5,7,9,11,13,15,17,19,21,23,25,27,29,31,33,35,37,-1,-1,39,41,43,45,-1,47,49,51,-1,-1,53,-1,55,57,-1,59,61,-1,63,65,-1,-1,67,-1,-1,-1,-1,-1,69,-1,-1,-1,-1,-1,-1,-1,-1,-1,-1,-1,-1,-1,-1,-1,-1,-1,-1,-1,-1,-1],"loss_changes":[7.390191E2,9.3242065E1,4.3485474E1,3.685546E1,1.7431793E1,2.5588694E1,1.4600494E1,1.2389725E1,2.680645E1,8.000197E0,1.0936554E1,1.0943657E1,9.295141E0,8.005859E0,1.5624068E0,6.500286E0,1.33207445E1,8.3379545E0,8.045528E0,0E0,0E0,6.4576416E0,5.373835E0,9.038679E0,3.3201275E0,0E0,6.3725877E-1,3.8815918E0,8.36231E0,0E0,0E0,3.1164017E0,0E0,1.16101675E1,1.1975674E1,0E0,3.9918756E0,6.184887E0,0E0,5.2440796E0,3.856964E0,0E0,0E0,5.207871E0,0E0,0E0,0E0,0E0,0E0,2.5723572E0,0E0,0E0,0E0,0E0,0E0,0E0,0E0,0E0,0E0,0E0,0E0,0E0,0E0,0E0,0E0,0E0,0E0,0E0,0E0,0E0,0E0],"parents":[2147483647,0,0,1,1,2,2,3,3,4,4,5,5,6,6,7,7,8,8,9,9,10,10,11,11,12,12,13,13,14,14,15,15,16,16,17,17,18,18,21,21,22,22,23,23,24,24,26,26,27,27,28,28,31,31,33,33,34,34,36,36,37,37,39,39,40,40,43,43,49,49],"right_children":[2,4,6,8,10,12,14,16,18,20,22,24,26,28,30,32,34,36,38,-1,-1,40,42,44,46,-1,48,50,52,-1,-1,54,-1,56,58,-1,60,62,-1,64,66,-1,-1,68,-1,-1,-1,-1,-1,70,-1,-1,-1,-1,-1,-1,-1,-1,-1,-1,-1,-1,-1,-1,-1,-1,-1,-1,-1,-1,-1],"split_conditions":[6.291279E-2,5.243343E-2,-6.8468116E-3,9.9064216E-2,-1.8714117E-1,-7.725376E-2,1.6907229E-1,-4.3790594E-2,-1.0501785E-1,1.8606605E-1,9.8912805E-2,2.925326E-2,1.6243802E-1,1.930013E-2,8.1393766E-1,-4.478373E-2,-8.269176E-2,-9.4910175E-2,1.3172188E-1,5.895874E-2,-5.1833075E-2,2.8855085E-1,-1.2253479E-1,-8.6912684E-2,-6.872609E-2,-7.28556E-2,7.92222E-2,9.1108605E-3,-9.031794E-2,7.5394697E-3,-5.6774408E-2,-5.698846E-2,1.9578464E-2,-9.4103284E-2,-6.117099E-3,3.584095E-2,-2.9940851E-2,-1.3710542E-1,-3.7136275E-2,-1.529175E-1,2.8050733E-1,-4.556648E-2,5.8984082E-2,-3.628902E-2,4.9459927E-2,-4.0298076E-3,7.31538E-2,4.456225E-2,-5.644797E-4,6.372686E-2,-2.6407215E-4,5.4423403E-2,-5.0612528E-2,-7.148552E-2,-7.2424667E-4,-3.6175102E-2,3.1568605E-2,-5.1740117E-2,1.6246295E-3,-7.644374E-2,1.2625079E-2,-2.1204762E-2,7.2464176E-2,-7.875832E-3,-7.3846795E-2,-4.2269487E-2,5.168401E-2,2.7129594E-2,-7.33351E-2,7.6349474E-2,9.60895E-4],"split_indices":[152,78,1048,493,686,135,1007,859,519,655,654,966,271,62,461,291,1065,591,751,0,0,850,343,380,589,0,363,1235,955,0,0,104,0,233,232,0,504,112,0,182,981,0,0,946,0,0,0,0,0,706,0,0,0,0,0,0,0,0,0,0,0,0,0,0,0,0,0,0,0,0,0],"split_type":[0,0,0,0,0,0,0,0,0,0,0,0,0,0,0,0,0,0,0,0,0,0,0,0,0,0,0,0,0,0,0,0,0,0,0,0,0,0,0,0,0,0,0,0,0,0,0,0,0,0,0,0,0,0,0,0,0,0,0,0,0,0,0,0,0,0,0,0,0,0,0],"sum_hessian":[5.9991077E2,3.4977826E2,2.501325E2,1.3260898E2,2.171693E2,3.2820705E1,2.1731181E2,9.9477844E1,3.313113E1,5.0549703E0,2.1211433E2,2.2023447E1,1.0797256E1,2.1464584E2,2.6659658E0,2.5635687E1,7.3842155E1,9.538134E0,2.3592997E1,3.3937874E0,1.661183E0,2.0900328E2,3.1110537E0,7.9136887E0,1.4109758E1,8.428729E0,2.3685274E0,2.087096E2,5.93624E0,1.1891452E0,1.4768206E0,2.367339E1,1.9622971E0,2.635559E1,4.748657E1,2.2149026E0,7.3232307E0,2.214388E1,1.4491156E0,2.0661522E2,2.3880544E0,1.1915452E0,1.9195085E0,4.66119E0,3.2524989E0,1.4387215E0,1.2671037E1,1.1897882E0,1.1787393E0,2.0703163E2,1.6779722E0,3.7348533E0,2.2013872E0,2.198234E1,1.6910502E0,8.575074E0,1.7780516E1,3.2185707E1,1.5300861E1,6.107167E0,1.2160641E0,1.4877449E0,2.0656136E1,3.3145027E0,2.0330072E2,1.1586076E0,1.2294466E0,1.2094297E0,3.45176E0,2.058681E2,1.1635191E0],"tree_param":{"num_deleted":"0","num_feature":"1280","num_nodes":"71","size_leaf_vector":"1"}},{"base_weights":[-1.3834025E-2,-9.3028E-1,1.2852262E0,-3.5210708E-1,-1.3659048E0,1.4109144E0,-2.4342827E-1,-7.428049E-1,4.078757E-1,-1.3993202E0,1.160227E-1,1.4354423E0,-1.7959356E-1,5.291202E-1,-1.283648E0,-1.3570511E0,-4.7339046E-1,-4.24365E-1,8.9997196E-1,-3.5564554E-1,-1.4364786E0,4.791764E-2,-5.2592676E-2,1.454542E0,1.210579E-1,-6.0750395E-2,4.802524E-2,-5.6946963E-1,6.2316813E-2,-7.196263E-2,-8.167897E-3,9.3776325E-4,-1.4663283E0,2.5083726E-2,-7.785339E-1,3.078788E-1,-1.2134682E0,1.0737184E0,-6.0449846E-2,-6.6010326E-2,5.525312E-2,8.2133425E-4,-1.4498165E0,1.465387E0,-1.4898211E-2,5.06243E-2,-4.858555E-2,-5.965137E-2,4.4646278E-2,-5.150712E-3,-7.618471E-2,-3.911672E-2,3.7614007E-2,-5.8052845E-2,5.250465E-3,4.596555E-2,-4.267179E-2,-7.275296E-2,1.455536E-2,3.2276802E-3,6.711422E-2,-1.3740674E-2,-7.3181346E-2,2.1536842E-2,7.391936E-2],"categories":[],"categories_nodes":[],"categories_segments":[],"categories_sizes":[],"default_left":[0,0,0,0,0,0,0,0,0,0,0,0,0,0,0,0,0,0,0,0,0,0,0,0,0,0,0,0,0,0,0,0,0,0,0,0,0,0,0,0,0,0,0,0,0,0,0,0,0,0,0,0,0,0,0,0,0,0,0,0,0,0,0,0,0],"id":8,"left_children":[1,3,5,7,9,11,13,15,17,19,21,23,25,27,29,31,33,35,37,39,41,-1,-1,43,45,-1,-1,47,-1,-1,-1,-1,49,51,53,55,57,59,-1,-1,-1,-1,61,63,-1,-1,-1,-1,-1,-1,-1,-1,-1,-1,-1,-1,-1,-1,-1,-1,-1,-1,-1,-1,-1],"loss_changes":[6.9920593E2,8.6252106E1,4.7021698E1,4.4638985E1,9.87027E0,9.021271E0,1.6197632E1,1.5736397E1,2.1409628E1,6.927185E0,6.1691875E0,5.380371E0,6.243523E0,9.998717E0,1.2503767E0,4.483677E0,1.0717726E1,1.17901325E1,1.3238592E1,1.2621828E1,3.6064453E0,0E0,0E0,4.5813904E0,5.134594E0,0E0,0E0,5.937421E0,0E0,0E0,0E0,0E0,1.9915161E0,1.6838173E1,1.4877386E1,8.627872E0,3.9538803E0,8.21645E0,0E0,0E0,0E0,0E0,2.5706787E0,2.2807312E0,0E0,0E0,0E0,0E0,0E0,0E0,0E0,0E0,0E0,0E0,0E0,0E0,0E0,0E0,0E0,0E0,0E0,0E0,0E0,0E0,0E0],"parents":[2147483647,0,0,1,1,2,2,3,3,4,4,5,5,6,6,7,7,8,8,9,9,10,10,11,11,12,12,13,13,14,14,15,15,16,16,17,17,18,18,19,19,20,20,23,23,24,24,27,27,32,32,33,33,34,34,35,35,36,36,37,37,42,42,43,43],"right_children":[2,4,6,8,10,12,14,16,18,20,22,24,26,28,30,32,34,36,38,40,42,-1,-1,44,46,-1,-1,48,-1,-1,-1,-1,50,52,54,56,58,60,-1,-1,-1,-1,62,64,-1,-1,-1,-1,-1,-1,-1,-1,-1,-1,-1,-1,-1,-1,-1,-1,-1,-1,-1,-1,-1],"split_conditions":[9.829451E-2,1.0177702E-2,-6.260766E-3,4.9179126E-2,2.6194102E-1,1.5368137E-1,-6.618122E-2,-9.4103284E-2,-1.10037506E-1,-1.6661593E-1,-6.953858E-2,2.1316001E-1,5.7809487E-2,-5.192396E-2,-2.3598924E-2,-9.15935E-2,-5.0742082E-2,-2.1775804E-2,1.0904949E0,-6.942256E-2,-1.2880833E-1,4.791764E-2,-5.2592676E-2,2.4872735E-1,1.1809535E-2,-6.0750395E-2,4.802524E-2,-2.7924007E-2,6.2316813E-2,-7.196263E-2,-8.167897E-3,9.3776325E-4,-1.5922049E-1,-1.3417058E-1,-6.117099E-3,-3.853365E-2,1.4145617E-1,-5.3107373E-2,-6.0449846E-2,-6.6010326E-2,5.525312E-2,8.2133425E-4,-1.8952364E-1,-1.4977145E-1,-1.4898211E-2,5.06243E-2,-4.858555E-2,-5.965137E-2,4.4646278E-2,-5.150712E-3,-7.618471E-2,-3.911672E-2,3.7614007E-2,-5.8052845E-2,5.250465E-3,4.596555E-2,-4.267179E-2,-7.275296E-2,1.455536E-2,3.2276802E-3,6.711422E-2,-1.3740674E-2,-7.3181346E-2,2.1536842E-2,7.391936E-2],"split_indices":[356,1268,244,472,509,1047,379,233,1175,139,146,522,343,677,398,143,689,188,1023,663,27,0,0,454,754,0,0,27,0,0,0,0,482,809,232,538,953,448,0,0,0,0,1102,697,0,0,0,0,0,0,0,0,0,0,0,0,0,0,0,0,0,0,0,0,0],"split_type":[0,0,0,0,0,0,0,0,0,0,0,0,0,0,0,0,0,0,0,0,0,0,0,0,0,0,0,0,0,0,0,0,0,0,0,0,0,0,0,0,0,0,0,0,0,0,0,0,0,0,0,0,0,0,0,0,0,0,0,0,0,0,0,0,0],"sum_hessian":[5.853078E2,3.4336118E2,2.419466E2,1.4831792E2,1.9504327E2,2.2363594E2,1.8310648E1,9.7973526E1,5.0344383E1,1.9079681E2,4.2464614E0,2.2033554E2,3.3003929E0,1.0789132E1,7.521515E0,2.8639778E1,6.9333755E1,1.8758076E1,3.1586308E1,6.922909E0,1.838739E2,2.5713105E0,1.6751509E0,2.1707454E2,3.2610042E0,1.6951696E0,1.6052233E0,4.342912E0,6.4462204E0,6.3542204E0,1.1672944E0,2.168361E0,2.6471416E1,2.6675371E1,4.265838E1,1.0045889E1,8.712188E0,2.9635666E1,1.9506419E0,4.22751E0,2.6953986E0,1.6705314E0,1.8220337E2,2.1590231E2,1.1722262E0,1.8364137E0,1.4245903E0,3.1738114E0,1.1691005E0,1.1817853E0,2.528963E1,1.2604531E1,1.4070841E1,2.9550594E1,1.3107786E1,6.717508E0,3.3283808E0,7.5351696E0,1.1770179E0,6.4898252E0,2.314584E1,2.3594224E0,1.7984395E2,3.102673E0,2.1279964E2],"tree_param":{"num_deleted":"0","num_feature":"1280","num_nodes":"65","size_leaf_vector":"1"}},{"base_weights":[-1.9702503E-2,-9.160657E-1,1.2262179E0,-3.3083385E-1,-1.3172997E0,1.331478E0,-3.657015E-1,-5.499755E-1,6.169006E-1,-1.3962404E0,-2.027155E-1,-1.0545591E-1,1.3754576E0,-1.0070838E0,8.99402E-1,-1.0989128E-1,-8.623899E-1,1.2426181E0,-1.496088E-1,-1.4170654E0,5.102617E-2,8.059383E-1,-1.0739832E0,7.8308046E-1,-6.413119E-2,-7.2833337E-3,1.4023769E0,1.8770212E-2,-6.915054E-2,6.1565276E-2,-1.2175997E-2,-8.8838285E-1,3.655899E-1,-1.0313655E0,1.8796325E-1,-1.4137909E-2,1.3973715E0,4.6854246E-1,-1.0896453E0,-1.4301412E0,5.320508E-4,5.2883267E-2,-4.5277163E-2,6.422422E-2,-3.3842847E-2,-6.685805E-2,1.3982094E-2,5.985407E-2,-1.5609791E-2,5.080101E-2,-4.897623E-2,1.4243646E0,5.393669E-2,-5.5686098E-2,3.2561235E-2,-1.2450118E-3,5.654646E-2,-5.4729618E-2,4.0139634E-2,4.3526843E-2,-3.358114E-2,7.323632E-2,1.7593216E-2,-5.5158492E-2,5.181557E-2,-6.663628E-2,-5.9938217E-3,-7.20207E-2,-1.312563E-2,7.1773656E-2,-1.268379E-4,4.897971E-2,-4.6362188E-2],"categories":[],"categories_nodes":[],"categories_segments":[],"categories_sizes":[],"default_left":[0,0,0,0,0,0,0,0,0,0,0,0,0,0,0,0,0,0,0,0,0,0,0,0,0,0,0,0,0,0,0,0,0,0,0,0,0,0,0,0,0,0,0,0,0,0,0,0,0,0,0,0,0,0,0,0,0,0,0,0,0,0,0,0,0,0,0,0,0,0,0,0,0],"id":9,"left_children":[1,3,5,7,9,11,13,15,17,19,21,23,25,27,29,31,33,35,37,39,41,43,45,47,-1,49,51,-1,-1,-1,-1,53,55,57,59,-1,61,63,65,67,-1,-1,-1,-1,-1,-1,-1,-1,-1,-1,-1,69,71,-1,-1,-1,-1,-1,-1,-1,-1,-1,-1,-1,-1,-1,-1,-1,-1,-1,-1,-1,-1],"loss_changes":[6.422378E2,7.809573E1,4.0807434E1,2.88684E1,1.7144745E1,1.4421997E1,1.3651672E1,1.5317215E1,1.2784896E1,5.642212E0,1.3406748E1,8.9934E0,8.172302E0,6.181693E0,2.5048833E0,1.7975788E1,1.1803333E1,3.8344955E0,7.889558E0,3.4169312E0,4.4114804E0,5.967911E0,3.254342E0,2.6289437E0,0E0,6.151008E0,6.300598E0,0E0,0E0,0E0,0E0,7.099412E0,9.0872135E0,7.4310265E0,6.3995323E0,0E0,4.2798615E-1,8.603679E0,1.098671E0,1.7878418E0,0E0,0E0,0E0,0E0,0E0,0E0,0E0,0E0,0E0,0E0,0E0,3.3577576E0,4.9867105E0,0E0,0E0,0E0,0E0,0E0,0E0,0E0,0E0,0E0,0E0,0E0,0E0,0E0,0E0,0E0,0E0,0E0,0E0,0E0,0E0],"parents":[2147483647,0,0,1,1,2,2,3,3,4,4,5,5,6,6,7,7,8,8,9,9,10,10,11,11,12,12,13,13,14,14,15,15,16,16,17,17,18,18,19,19,20,20,21,21,22,22,23,23,25,25,26,26,31,31,32,32,33,33,34,34,36,36,37,37,38,38,39,39,51,51,52,52],"right_children":[2,4,6,8,10,12,14,16,18,20,22,24,26,28,30,32,34,36,38,40,42,44,46,48,-1,50,52,-1,-1,-1,-1,54,56,58,60,-1,62,64,66,68,-1,-1,-1,-1,-1,-1,-1,-1,-1,-1,-1,70,72,-1,-1,-1,-1,-1,-1,-1,-1,-1,-1,-1,-1,-1,-1,-1,-1,-1,-1,-1,-1],"split_conditions":[5.5800304E-2,4.589487E-3,1.22306935E-1,-2.766629E-2,1.4876553E-1,1.5547968E-2,2.5237665E-1,-4.3474086E-2,-2.0814493E-2,4.2304628E-2,-8.7312154E-2,-1.0389497E-2,-9.5212124E-2,8.156214E-2,2.1539131E-1,-5.394607E-2,-4.716061E-3,-1.050199E-1,-4.9591996E-3,1.7243358E-1,-9.0016395E-2,4.3112572E-2,-2.9204175E-2,4.2585623E-2,-6.413119E-2,1.6490391E-1,1.4319912E-1,1.8770212E-2,-6.915054E-2,6.1565276E-2,-1.2175997E-2,-4.9905837E-2,-2.1202857E-2,7.2496885E-1,-4.9829124E-3,-1.4137909E-2,1.249202E-2,-8.641277E-3,2.0942692E-2,1.3875213E0,5.320508E-4,5.2883267E-2,-4.5277163E-2,6.422422E-2,-3.3842847E-2,-6.685805E-2,1.3982094E-2,5.985407E-2,-1.5609791E-2,5.080101E-2,-4.897623E-2,-6.990288E-2,-8.328982E-2,-5.5686098E-2,3.2561235E-2,-1.2450118E-3,5.654646E-2,-5.4729618E-2,4.0139634E-2,4.3526843E-2,-3.358114E-2,7.323632E-2,1.7593216E-2,-5.5158492E-2,5.181557E-2,-6.663628E-2,-5.9938217E-3,-7.20207E-2,-1.312563E-2,7.1773656E-2,-1.268379E-4,4.897971E-2,-4.6362188E-2],"split_indices":[152,880,138,231,562,509,509,89,989,697,707,835,1048,78,99,448,202,997,362,255,967,1201,20,122,0,101,1047,0,0,0,0,127,1252,413,298,0,1040,397,521,661,0,0,0,0,0,0,0,0,0,0,0,1018,423,0,0,0,0,0,0,0,0,0,0,0,0,0,0,0,0,0,0,0,0],"split_type":[0,0,0,0,0,0,0,0,0,0,0,0,0,0,0,0,0,0,0,0,0,0,0,0,0,0,0,0,0,0,0,0,0,0,0,0,0,0,0,0,0,0,0,0,0,0,0,0,0,0,0,0,0,0,0,0,0,0,0,0,0,0,0,0,0,0,0,0,0,0,0,0,0],"sum_hessian":[5.7306525E2,3.3344025E2,2.3962503E2,1.3636522E2,1.9707503E2,2.249168E2,1.4708238E1,1.11096436E2,2.5268784E1,1.8380435E2,1.3270684E1,6.6379867E0,2.1827881E2,9.895412E0,4.8128257E0,4.6685043E1,6.441139E1,1.3570095E1,1.1698688E1,1.8121764E2,2.5867128E0,6.185177E0,7.085507E0,3.9735177E0,2.6644692E0,4.182232E0,2.1409657E2,2.1158118E0,7.7796006E0,3.6697907E0,1.1430349E0,1.7372751E1,2.9312292E1,5.5500782E1,8.91061E0,1.1737276E0,1.2396368E1,7.360273E0,4.3384147E0,1.795713E2,1.6463311E0,1.2088754E0,1.3778374E0,4.7771707E0,1.4080065E0,5.942334E0,1.1431727E0,2.8161123E0,1.1574054E0,2.01567E0,2.166562E0,2.1060612E2,3.4904447E0,1.5395992E1,1.9767597E0,2.0049921E1,9.262371E0,5.40411E1,1.4596812E0,4.959594E0,3.9510164E0,1.1269387E1,1.1269803E0,1.7029986E0,5.6572742E0,3.1696465E0,1.1687683E0,1.7777362E2,1.7976768E0,2.0897325E2,1.6328759E0,1.7968712E0,1.6935734E0],"tree_param":{"num_deleted":"0","num_feature":"1280","num_nodes":"73","size_leaf_vector":"1"}},{"base_weights":[1.7241416E-2,-7.859449E-1,1.2436123E0,-1.9268917E-1,-1.257116E0,1.3219417E0,-3.9613217E-1,-5.1770467E-1,5.752841E-1,-1.338865E0,8.526578E-2,-3.062942E-1,1.3651263E0,-6.1190005E-2,6.517813E-1,-1.8824391E-1,-1.0320919E0,8.290232E-1,-1.2315006E0,-1.3681989E0,2.8082406E-2,-9.538911E-1,1.1505377E0,-1.0504547E0,5.011065E-2,1.389135E0,-4.3216956E-1,5.8074344E-2,-3.229073E-2,-4.82585E-1,8.6692023E-1,-1.4214307E0,-4.4484437E-1,-5.564458E-1,1.0305474E0,-7.232907E-2,-9.355836E-3,1.2927623E-2,-1.382436E0,-5.2570384E-2,4.649624E-2,-6.246696E-2,1.2371579E-2,6.8373E-2,3.9782296E-3,-7.6882313E-3,-6.466027E-2,-1.5714943E-2,1.4007329E0,2.205018E-2,-5.008285E-2,6.000253E-2,-2.9435137E-2,6.1551925E-2,-2.426797E-2,-2.6306218E-2,-7.4103646E-2,-3.5834443E-2,6.792873E-2,-6.3732736E-2,2.865682E-2,6.425425E-2,1.0936461E-2,-6.983739E-2,1.0309416E-2,-8.101479E-4,7.059814E-2],"categories":[],"categories_nodes":[],"categories_segments":[],"categories_sizes":[],"default_left":[0,0,0,0,0,0,0,0,0,0,0,0,0,0,0,0,0,0,0,0,0,0,0,0,0,0,0,0,0,0,0,0,0,0,0,0,0,0,0,0,0,0,0,0,0,0,0,0,0,0,0,0,0,0,0,0,0,0,0,0,0,0,0,0,0,0,0],"id":10,"left_children":[1,3,5,7,9,11,13,15,17,19,21,23,25,-1,27,29,31,33,35,37,39,41,43,45,-1,47,49,-1,-1,51,53,55,57,59,61,-1,-1,-1,63,-1,-1,-1,-1,-1,-1,-1,-1,-1,65,-1,-1,-1,-1,-1,-1,-1,-1,-1,-1,-1,-1,-1,-1,-1,-1,-1,-1],"loss_changes":[5.559497E2,9.509337E1,2.9211792E1,3.827581E1,2.095456E1,1.5423676E1,1.0297147E1,1.8012728E1,2.1980722E1,7.218689E0,1.4205812E1,7.2170534E0,9.578918E0,0E0,4.3783293E0,2.11378E1,8.907005E0,1.1933296E1,1.0843287E0,4.4180603E0,5.594057E0,2.6306887E0,1.3549271E0,7.858443E-1,0E0,4.5015564E0,2.1849253E0,0E0,0E0,1.0135053E1,7.938181E0,5.576706E-1,9.841844E0,5.4488697E0,7.131111E0,0E0,0E0,0E0,4.2432556E0,0E0,0E0,0E0,0E0,0E0,0E0,0E0,0E0,0E0,3.2746582E0,0E0,0E0,0E0,0E0,0E0,0E0,0E0,0E0,0E0,0E0,0E0,0E0,0E0,0E0,0E0,0E0,0E0,0E0],"parents":[2147483647,0,0,1,1,2,2,3,3,4,4,5,5,6,6,7,7,8,8,9,9,10,10,11,11,12,12,14,14,15,15,16,16,17,17,18,18,19,19,20,20,21,21,22,22,23,23,25,25,26,26,29,29,30,30,31,31,32,32,33,33,34,34,38,38,48,48],"right_children":[2,4,6,8,10,12,14,16,18,20,22,24,26,-1,28,30,32,34,36,38,40,42,44,46,-1,48,50,-1,-1,52,54,56,58,60,62,-1,-1,-1,64,-1,-1,-1,-1,-1,-1,-1,-1,-1,66,-1,-1,-1,-1,-1,-1,-1,-1,-1,-1,-1,-1,-1,-1,-1,-1,-1,-1],"split_conditions":[4.6763003E-2,2.4320167E-2,-5.6627937E-2,-8.091344E-3,6.875565E-1,-2.8293794E-2,-1.5766583E-2,-3.867766E-2,-9.85238E-3,1.6098668E-1,-1.052864E-1,-8.825354E-2,-3.7115507E-3,-6.1190005E-2,-1.0433562E-1,6.3835233E-3,-8.512743E-2,-1.1281473E-1,-4.6167034E-3,-1.7631724E-1,1.5487026E-1,9.989399E-2,5.116066E-1,1.5206065E-2,5.011065E-2,-8.886801E-2,2.2750318E-2,5.8074344E-2,-3.229073E-2,-7.338613E-2,-3.231802E-2,-1.1529636E-1,-1.2284209E-2,-4.2573236E-2,-5.904762E-2,-7.232907E-2,-9.355836E-3,1.2927623E-2,1.0770884E0,-5.2570384E-2,4.649624E-2,-6.246696E-2,1.2371579E-2,6.8373E-2,3.9782296E-3,-7.6882313E-3,-6.466027E-2,-1.5714943E-2,-1.1913301E-1,2.205018E-2,-5.008285E-2,6.000253E-2,-2.9435137E-2,6.1551925E-2,-2.426797E-2,-2.6306218E-2,-7.4103646E-2,-3.5834443E-2,6.792873E-2,-6.3732736E-2,2.865682E-2,6.425425E-2,1.0936461E-2,-6.983739E-2,1.0309416E-2,-8.101479E-4,7.059814E-2],"split_indices":[1046,880,40,999,413,696,214,1016,1047,845,697,442,579,0,706,472,1108,271,401,1279,663,1271,817,116,0,1128,689,0,0,779,950,471,545,280,244,0,0,0,1261,0,0,0,0,0,0,0,0,0,519,0,0,0,0,0,0,0,0,0,0,0,0,0,0,0,0,0,0],"split_type":[0,0,0,0,0,0,0,0,0,0,0,0,0,0,0,0,0,0,0,0,0,0,0,0,0,0,0,0,0,0,0,0,0,0,0,0,0,0,0,0,0,0,0,0,0,0,0,0,0,0,0,0,0,0,0,0,0,0,0,0,0,0,0,0,0,0,0],"sum_hessian":[5.624212E2,3.4006305E2,2.2235815E2,1.5115341E2,1.8890964E2,2.124055E2,9.952647E0,1.0643481E2,4.4718605E1,1.7806818E2,1.0841469E1,5.330518E0,2.0707498E2,5.466906E0,4.4857416E0,6.571246E1,4.0722343E1,3.9686344E1,5.0322623E0,1.7432632E2,3.7418437E0,5.5409303E0,5.3005385E0,3.523743E0,1.8067749E0,2.045694E2,2.5055842E0,3.2959576E0,1.1897838E0,5.1804184E1,1.3908283E1,2.3633251E1,1.7089092E1,4.815923E0,3.4870422E1,3.8535547E0,1.1787072E0,1.3635669E0,1.7296275E2,1.6276863E0,2.1141574E0,4.415124E0,1.1258061E0,4.17755E0,1.1229885E0,1.098703E0,2.42504E0,1.2069026E0,2.033625E2,1.0781349E0,1.4274492E0,2.461719E0,4.9342464E1,1.1028404E1,2.879879E0,2.1130233E0,2.1520227E1,1.5374204E1,1.7148885E0,2.8655338E0,1.9503891E0,2.6103088E1,8.767334E0,1.7153816E2,1.4246004E0,1.5955806E0,2.0176692E2],"tree_param":{"num_deleted":"0","num_feature":"1280","num_nodes":"67","size_leaf_vector":"1"}},{"base_weights":[-1.8794067E-2,-8.49091E-1,1.1807852E0,-2.7300218E-1,-1.2366959E0,1.3180082E0,-1.2450653E-1,-6.3964874E-1,5.1087064E-1,-1.3230739E0,-7.1070886E-1,1.3347564E0,-4.483033E-2,-9.074298E-1,6.9744915E-1,1.4639264E-1,-9.108923E-1,1.0628221E0,-1.5693814E-1,1.2787087E-1,-1.3435994E0,7.2447395E-1,-1.0525979E0,1.3514154E0,-2.4695402E-2,-1.2623875E0,3.5009764E-2,1.0711043E0,-3.9612826E-2,-6.181152E-1,6.539972E-1,-9.9534285E-1,7.729955E-1,-5.3296197E-2,1.318682E0,-5.543917E-1,7.9436296E-1,-3.788755E-2,4.5687135E-2,1.8442605E-2,-1.3580719E0,-4.0537067E-2,1.2034668E0,-1.1890037E0,2.716866E-2,1.366572E0,-1.8265858E-2,1.2348271E-2,-7.382805E-2,-1.842916E-2,6.526986E-2,1.6028466E-2,-6.1600108E-2,6.145544E-2,-1.5768988E-2,-6.504232E-2,-2.711216E-2,7.261981E-2,-2.252122E-2,4.4599883E-2,-5.787639E-2,1.3326536E-3,7.1854085E-2,4.1157033E-2,-4.838782E-2,6.2248804E-2,-3.090082E-2,-6.894233E-2,-1.3194299E-2,7.638834E-2,7.5908366E-4,-1.1958113E-2,-6.65419E-2,6.8924345E-2,-4.124602E-3],"categories":[],"categories_nodes":[],"categories_segments":[],"categories_sizes":[],"default_left":[0,0,0,0,0,0,0,0,0,0,0,0,0,0,0,0,0,0,0,0,0,0,0,0,0,0,0,0,0,0,0,0,0,0,0,0,0,0,0,0,0,0,0,0,0,0,0,0,0,0,0,0,0,0,0,0,0,0,0,0,0,0,0,0,0,0,0,0,0,0,0,0,0,0,0],"id":11,"left_children":[1,3,5,7,9,11,13,15,17,19,21,23,-1,25,27,29,31,33,35,37,39,41,43,45,-1,47,-1,49,-1,51,53,55,57,59,61,63,65,-1,-1,-1,67,-1,69,71,-1,73,-1,-1,-1,-1,-1,-1,-1,-1,-1,-1,-1,-1,-1,-1,-1,-1,-1,-1,-1,-1,-1,-1,-1,-1,-1,-1,-1,-1,-1],"loss_changes":[5.5660095E2,7.340224E1,4.1108307E1,3.8869545E1,8.015961E0,8.871979E0,1.5214561E1,1.9708794E1,1.6124475E1,5.179901E0,1.5466529E1,6.936371E0,0E0,7.7541847E0,7.3163385E0,9.87933E0,1.049588E1,6.875742E0,8.176928E0,2.9604619E0,4.612549E0,5.6508207E0,6.0035076E0,5.812256E0,0E0,3.6680412E0,0E0,3.7579403E0,0E0,6.3053374E0,8.838968E0,8.370811E0,3.8371034E0,6.674818E0,2.9333687E0,9.349901E0,4.8685384E0,0E0,0E0,0E0,3.3806458E0,0E0,1.9992728E0,2.778286E0,0E0,3.6118774E0,0E0,0E0,0E0,0E0,0E0,0E0,0E0,0E0,0E0,0E0,0E0,0E0,0E0,0E0,0E0,0E0,0E0,0E0,0E0,0E0,0E0,0E0,0E0,0E0,0E0,0E0,0E0,0E0,0E0],"parents":[2147483647,0,0,1,1,2,2,3,3,4,4,5,5,6,6,7,7,8,8,9,9,10,10,11,11,13,13,14,14,15,15,16,16,17,17,18,18,19,19,20,20,21,21,22,22,23,23,25,25,27,27,29,29,30,30,31,31,32,32,33,33,34,34,35,35,36,36,40,40,42,42,43,43,45,45],"right_children":[2,4,6,8,10,12,14,16,18,20,22,24,-1,26,28,30,32,34,36,38,40,42,44,46,-1,48,-1,50,-1,52,54,56,58,60,62,64,66,-1,-1,-1,68,-1,70,72,-1,74,-1,-1,-1,-1,-1,-1,-1,-1,-1,-1,-1,-1,-1,-1,-1,-1,-1,-1,-1,-1,-1,-1,-1,-1,-1,-1,-1,-1,-1],"split_conditions":[9.08505E-2,4.900303E-4,-3.1662744E-2,-1.3864726E-2,-4.5036066E-2,1.4430489E-1,2.334939E-1,-5.3076696E-2,-2.5124103E-2,-1.529175E-1,5.05656E-3,1.694859E-1,-4.483033E-2,3.8387063E-1,1.2959372E-1,-6.5131515E-2,7.424703E-2,-1.3747303E-1,-1.3140919E-2,-1.5661606E-1,-1.3628401E-1,-8.834154E-2,-9.815583E-3,8.001869E-1,-2.4695402E-2,-6.584194E-2,3.5009764E-2,-9.798811E-2,-3.9612826E-2,-1.4104539E-1,-4.1278914E-2,-3.7401862E-2,-5.3340822E-2,-5.903366E-2,-1.2886238E-1,-1.2880656E-1,-1.4527179E-2,-3.788755E-2,4.5687135E-2,1.8442605E-2,5.7964194E-1,-4.0537067E-2,7.7434674E-2,-6.949934E-3,2.716866E-2,1.05979145E-1,-1.8265858E-2,1.2348271E-2,-7.382805E-2,-1.842916E-2,6.526986E-2,1.6028466E-2,-6.1600108E-2,6.145544E-2,-1.5768988E-2,-6.504232E-2,-2.711216E-2,7.261981E-2,-2.252122E-2,4.4599883E-2,-5.787639E-2,1.3326536E-3,7.1854085E-2,4.1157033E-2,-4.838782E-2,6.2248804E-2,-3.090082E-2,-6.894233E-2,-1.3194299E-2,7.638834E-2,7.5908366E-4,-1.1958113E-2,-6.65419E-2,6.8924345E-2,-4.124602E-3],"split_indices":[356,880,244,999,514,1259,801,1222,257,182,138,1231,0,1257,373,565,141,1249,447,331,27,566,489,657,0,1025,0,451,0,722,464,567,716,962,1025,1073,1110,0,0,0,506,0,1025,52,0,88,0,0,0,0,0,0,0,0,0,0,0,0,0,0,0,0,0,0,0,0,0,0,0,0,0,0,0,0,0],"split_type":[0,0,0,0,0,0,0,0,0,0,0,0,0,0,0,0,0,0,0,0,0,0,0,0,0,0,0,0,0,0,0,0,0,0,0,0,0,0,0,0,0,0,0,0,0,0,0,0,0,0,0,0,0,0,0,0,0,0,0,0,0,0,0,0,0,0,0,0,0,0,0,0,0,0,0],"sum_hessian":[5.5682574E2,3.292354E2,2.2759035E2,1.3310646E2,1.9612894E2,2.059314E2,2.165895E1,9.081357E1,4.22929E1,1.6716205E2,2.8966887E1,2.0478003E2,1.1513642E0,1.1039601E1,1.06193495E1,2.3416063E1,6.739751E1,2.2831171E1,1.946173E1,2.2587936E0,1.6490326E2,5.3576193E0,2.3609266E1,2.0318996E2,1.5900692E0,9.218861E0,1.8207403E0,8.714526E0,1.9048232E0,9.2567215E0,1.4159342E1,6.456818E1,2.829329E0,4.405422E0,1.8425749E1,1.4020988E1,5.4407406E0,1.0788214E0,1.1799723E0,1.1767607E0,1.637265E2,1.1093755E0,4.248244E0,2.1985212E1,1.624055E0,2.0161392E2,1.5760344E0,1.1265528E0,8.092308E0,1.1394768E0,7.57505E0,3.8490324E0,5.407689E0,8.718749E0,5.4405932E0,3.744787E1,2.7120304E1,1.698784E0,1.130545E0,2.477081E0,1.9283412E0,1.6496098E0,1.677614E1,3.0074348E0,1.1013554E1,4.214613E0,1.2261274E0,1.604205E2,3.3059852E0,3.112978E0,1.1352661E0,3.2053976E0,1.8779814E1,2.00018E2,1.5959194E0],"tree_param":{"num_deleted":"0","num_feature":"1280","num_nodes":"75","size_leaf_vector":"1"}},{"base_weights":[-6.847672E-3,-8.0325925E-1,1.1555178E0,-2.916026E-1,-1.2368963E0,1.297876E0,2.4216682E-2,-5.1650536E-1,6.885547E-1,-2.1245144E-1,-1.2927779E0,1.3195013E0,-3.05828E-1,-1.0651212E0,6.2891567E-1,-1.0605671E0,-3.0757478E-1,1.1873463E0,-1.5264049E-1,-7.040011E-1,6.241324E-2,-1.3136443E0,3.048019E-2,-2.2643741E-2,1.3345712E0,3.6272276E-2,-5.2564587E-2,-1.3430456E0,2.7743E-2,-4.8899534E-1,1.0380634E0,-2.5165343E-1,-1.337553E0,3.3302242E-1,-5.0430834E-1,-3.1694308E-2,1.35249E0,-9.2655706E-1,8.987953E-1,2.4899904E-2,-5.577291E-2,9.915711E-3,-1.3333024E0,1.3448639E0,-1.1693589E-2,-7.19003E-2,-1.7872231E-2,-5.6312438E-2,4.1969493E-2,1.2549059E0,-1.5318597E-2,4.447571E-2,-4.5329206E-2,-7.0051216E-2,-2.2800893E-2,-1.2726865E-2,5.6438066E-2,1.8511025E-2,-3.4945425E-2,7.846404E-3,7.160892E-2,1.8454304E-2,-6.775576E-2,-4.076164E-3,5.8691617E-2,-6.748519E-2,7.1182935E-3,6.813439E-2,2.8722355E-2,1.3262147E-2,6.641238E-2],"categories":[],"categories_nodes":[],"categories_segments":[],"categories_sizes":[],"default_left":[0,0,0,0,0,0,0,0,0,0,0,0,0,0,0,0,0,0,0,0,0,0,0,0,0,0,0,0,0,0,0,0,0,0,0,0,0,0,0,0,0,0,0,0,0,0,0,0,0,0,0,0,0,0,0,0,0,0,0,0,0,0,0,0,0,0,0,0,0,0,0],"id":12,"left_children":[1,3,5,7,9,11,13,15,17,19,21,23,25,27,29,31,33,35,37,39,-1,41,-1,-1,43,-1,-1,45,-1,47,49,51,53,55,57,-1,59,61,63,-1,-1,-1,65,67,-1,-1,-1,-1,-1,69,-1,-1,-1,-1,-1,-1,-1,-1,-1,-1,-1,-1,-1,-1,-1,-1,-1,-1,-1,-1,-1],"loss_changes":[5.0988937E2,7.2158264E1,3.603586E1,3.3696007E1,9.835571E0,7.3015747E0,1.7829714E1,1.3722286E1,1.2204623E1,8.297155E0,7.440796E0,5.851288E0,3.421278E0,5.0989847E0,8.457128E0,7.25523E0,1.1599285E1,6.3020477E0,1.0233549E1,4.6949573E0,0E0,5.19162E0,0E0,0E0,3.4631653E0,0E0,0E0,2.858734E-1,0E0,5.462785E0,4.1870985E0,8.186515E0,7.604027E-1,1.0532994E1,1.2136141E1,0E0,1.38698E0,4.4685864E0,1.5532203E0,0E0,0E0,0E0,4.156006E0,1.8800354E0,0E0,0E0,0E0,0E0,0E0,4.7719765E-1,0E0,0E0,0E0,0E0,0E0,0E0,0E0,0E0,0E0,0E0,0E0,0E0,0E0,0E0,0E0,0E0,0E0,0E0,0E0,0E0,0E0],"parents":[2147483647,0,0,1,1,2,2,3,3,4,4,5,5,6,6,7,7,8,8,9,9,10,10,11,11,12,12,13,13,14,14,15,15,16,16,17,17,18,18,19,19,21,21,24,24,27,27,29,29,30,30,31,31,32,32,33,33,34,34,36,36,37,37,38,38,42,42,43,43,49,49],"right_children":[2,4,6,8,10,12,14,16,18,20,22,24,26,28,30,32,34,36,38,40,-1,42,-1,-1,44,-1,-1,46,-1,48,50,52,54,56,58,-1,60,62,64,-1,-1,-1,66,68,-1,-1,-1,-1,-1,70,-1,-1,-1,-1,-1,-1,-1,-1,-1,-1,-1,-1,-1,-1,-1,-1,-1,-1,-1,-1,-1],"split_conditions":[9.829451E-2,4.98304E-2,-4.8515916E-2,-1.098616E-3,-1.5338486E-1,1.5368137E-1,1.7391257E-1,-9.941618E-2,-7.4575134E-3,-5.9071533E-2,9.099804E-2,-9.46999E-2,-1.557498E-1,-3.8496375E-2,-1.07307985E-1,-1.433498E-1,-8.0142386E-2,-1.0005121E-1,1.4428832E-2,-9.0365425E-2,6.241324E-2,-1.5920782E-1,3.048019E-2,-2.2643741E-2,1.694859E-1,3.6272276E-2,-5.2564587E-2,1.391379E-1,2.7743E-2,2.783626E-1,9.628976E-2,-1.1233289E-1,-2.035702E-2,-6.1116587E-2,-1.14071965E-1,-3.1694308E-2,-1.0137818E-1,-8.043503E-2,-6.660105E-2,2.4899904E-2,-5.577291E-2,9.915711E-3,2.0081246E0,8.571526E-2,-1.1693589E-2,-7.19003E-2,-1.7872231E-2,-5.6312438E-2,4.1969493E-2,-6.474285E-2,-1.5318597E-2,4.447571E-2,-4.5329206E-2,-7.0051216E-2,-2.2800893E-2,-1.2726865E-2,5.6438066E-2,1.8511025E-2,-3.4945425E-2,7.846404E-3,7.160892E-2,1.8454304E-2,-6.775576E-2,-4.076164E-3,5.8691617E-2,-6.748519E-2,7.1182935E-3,6.813439E-2,2.8722355E-2,1.3262147E-2,6.641238E-2],"split_indices":[356,1268,244,815,87,1047,801,233,1277,127,32,696,632,630,21,624,941,982,174,9,0,220,0,0,1231,0,0,1149,0,664,1007,528,535,1188,1268,0,1170,530,745,0,0,0,642,947,0,0,0,0,0,448,0,0,0,0,0,0,0,0,0,0,0,0,0,0,0,0,0,0,0,0,0],"split_type":[0,0,0,0,0,0,0,0,0,0,0,0,0,0,0,0,0,0,0,0,0,0,0,0,0,0,0,0,0,0,0,0,0,0,0,0,0,0,0,0,0,0,0,0,0,0,0,0,0,0,0,0,0,0,0,0,0,0,0,0,0,0,0,0,0,0,0,0,0,0,0],"sum_hessian":[5.4879956E2,3.2584863E2,2.2295097E2,1.5024458E2,1.7560405E2,1.9790074E2,2.5050226E1,1.2258889E2,2.7655691E1,9.331789E0,1.6627225E2,1.9544249E2,2.458251E0,8.6700735E0,1.6380152E1,3.2883373E1,8.970551E1,1.7102919E1,1.0552774E1,7.369801E0,1.9619883E0,1.647744E2,1.4978614E0,1.4028432E0,1.9403964E2,1.0426724E0,1.4155785E0,7.5463667E0,1.1237075E0,4.3364763E0,1.2043675E1,8.874549E0,2.4008825E1,2.0913832E1,6.879168E1,1.1859255E0,1.5916992E1,6.1470013E0,4.405773E0,1.8257799E0,5.544021E0,1.9982213E0,1.6277617E2,1.9291621E2,1.1234387E0,6.4645114E0,1.0818549E0,3.0334404E0,1.3030357E0,1.0428299E1,1.6153765E0,3.105415E0,5.7691336E0,2.1846554E1,2.162273E0,1.2421866E1,8.491965E0,1.2357023E1,5.6434658E1,1.1801755E0,1.4736816E1,1.5623575E0,4.584644E0,1.1194154E0,3.2863576E0,1.610713E2,1.7048686E0,1.8780255E2,5.1136627E0,1.0380133E0,9.3902855E0],"tree_param":{"num_deleted":"0","num_feature":"1280","num_nodes":"71","size_leaf_vector":"1"}},{"base_weights":[8.974239E-4,-8.0460674E-1,1.1066395E0,-3.1427687E-1,-1.1659108E0,1.2015423E0,-5.43964E-1,-5.6452864E-1,5.096337E-1,-1.2119662E0,1.4617084E-1,1.2269791E0,-7.866851E-1,-1.1717421E0,8.4251726E-1,2.287726E-2,-7.9177797E-1,9.488916E-1,-3.7803558E-1,-8.398145E-2,-1.2532666E0,9.2637E-1,-6.902845E-1,4.7885025E-1,1.295333E0,-5.029748E-2,-8.385676E-3,-3.0754155E-3,-6.55911E-2,5.199759E-2,3.7791883E-3,2.7492827E-1,-6.339127E-2,-1.177913E0,-4.1341797E-1,-3.302016E-2,1.2693678E0,-9.0385336E-1,8.0072063E-1,-5.6581195E-2,6.700673E-2,1.01505116E-1,-1.2808982E0,7.914518E-3,5.776891E-2,2.5325236E-4,-4.8172504E-2,8.2414234E-1,-5.222479E-1,-1.2843452E-2,1.3060874E0,-1.5113713E-2,4.1750696E-2,1.0338219E-2,-6.1992478E-2,2.2731414E-2,-3.3895828E-2,5.4658752E-2,-4.9114745E-2,-4.1220337E-3,7.147653E-2,-6.314521E-2,2.419175E-2,5.0777256E-2,5.9624305E-3,-4.6073373E-2,5.250171E-2,-6.471681E-2,7.8497175E-3,-3.2130834E-2,5.1561046E-2,-5.0227195E-2,2.8789265E-2,-5.419198E-3,6.5846846E-2],"categories":[],"categories_nodes":[],"categories_segments":[],"categories_sizes":[],"default_left":[0,0,0,0,0,0,0,0,0,0,0,0,0,0,0,0,0,0,0,0,0,0,0,0,0,0,0,0,0,0,0,0,0,0,0,0,0,0,0,0,0,0,0,0,0,0,0,0,0,0,0,0,0,0,0,0,0,0,0,0,0,0,0,0,0,0,0,0,0,0,0,0,0,0,0],"id":13,"left_children":[1,3,5,7,9,11,13,15,17,19,21,23,25,27,29,31,33,35,37,39,41,43,45,47,49,-1,-1,-1,-1,-1,-1,51,-1,53,55,57,59,61,63,-1,-1,65,67,-1,-1,-1,-1,69,71,-1,73,-1,-1,-1,-1,-1,-1,-1,-1,-1,-1,-1,-1,-1,-1,-1,-1,-1,-1,-1,-1,-1,-1,-1,-1],"loss_changes":[4.660905E2,5.326854E1,3.5201416E1,2.7052774E1,1.0688095E1,1.1528503E1,1.2023387E1,1.3372585E1,1.2355682E1,7.728256E0,5.0711617E0,9.945679E0,2.7206802E-1,1.3416996E0,6.078508E-1,9.743565E0,1.0056015E1,6.608551E0,7.4799137E0,1.1976795E1,6.199646E0,5.102434E-1,7.362225E-1,6.958099E0,3.4859924E0,0E0,0E0,0E0,0E0,0E0,0E0,8.32886E0,0E0,3.272976E0,9.030501E0,7.6053224E0,3.529646E0,4.6008496E0,4.4878316E-1,0E0,0E0,5.011301E0,3.2749329E0,0E0,0E0,0E0,0E0,5.045266E0,3.4672885E0,0E0,3.0217285E0,0E0,0E0,0E0,0E0,0E0,0E0,0E0,0E0,0E0,0E0,0E0,0E0,0E0,0E0,0E0,0E0,0E0,0E0,0E0,0E0,0E0,0E0,0E0,0E0],"parents":[2147483647,0,0,1,1,2,2,3,3,4,4,5,5,6,6,7,7,8,8,9,9,10,10,11,11,12,12,13,13,14,14,15,15,16,16,17,17,18,18,19,19,20,20,21,21,22,22,23,23,24,24,31,31,33,33,34,34,35,35,36,36,37,37,38,38,41,41,42,42,47,47,48,48,50,50],"right_children":[2,4,6,8,10,12,14,16,18,20,22,24,26,28,30,32,34,36,38,40,42,44,46,48,50,-1,-1,-1,-1,-1,-1,52,-1,54,56,58,60,62,64,-1,-1,66,68,-1,-1,-1,-1,70,72,-1,74,-1,-1,-1,-1,-1,-1,-1,-1,-1,-1,-1,-1,-1,-1,-1,-1,-1,-1,-1,-1,-1,-1,-1,-1],"split_conditions":[-6.8054833E-3,1.6426157E-2,-7.7365073E-3,-8.091344E-3,1.3974346E-2,5.621195E-3,2.9602998E-1,-4.801764E-2,1.3985641E-1,-1.3711986E-1,-6.95654E-2,-8.368604E-2,-7.7741235E-2,-1.3384053E-1,5.283689E-3,-1.3709467E-2,-1.9748127E-2,-1.3597757E-1,1.6237502E-1,1.1383519E-2,-1.5418033E-1,1.813915E-1,-1.5541682E-1,-6.904131E-2,-8.0612E-2,-5.029748E-2,-8.385676E-3,-3.0754155E-3,-6.55911E-2,5.199759E-2,3.7791883E-3,-6.724042E-2,-6.339127E-2,-1.6894874E-1,-1.765478E-2,-5.7220817E-2,-1.10700086E-1,6.399555E-1,-1.4191973E-1,-5.6581195E-2,6.700673E-2,-5.3338833E-2,3.2063586E-1,7.914518E-3,5.776891E-2,2.5325236E-4,-4.8172504E-2,-8.9879036E-2,-7.184151E-2,-1.2843452E-2,-1.2505509E-1,-1.5113713E-2,4.1750696E-2,1.0338219E-2,-6.1992478E-2,2.2731414E-2,-3.3895828E-2,5.4658752E-2,-4.9114745E-2,-4.1220337E-3,7.147653E-2,-6.314521E-2,2.419175E-2,5.0777256E-2,5.9624305E-3,-4.6073373E-2,5.250171E-2,-6.471681E-2,7.8497175E-3,-3.2130834E-2,5.1561046E-2,-5.0227195E-2,2.8789265E-2,-5.419198E-3,6.5846846E-2],"split_indices":[231,1268,139,999,697,40,614,1222,78,330,148,58,17,613,57,450,827,215,663,355,244,637,759,546,255,0,0,0,0,0,0,182,0,1084,52,658,123,1112,40,0,0,166,1048,0,0,0,0,296,1094,0,80,0,0,0,0,0,0,0,0,0,0,0,0,0,0,0,0,0,0,0,0,0,0,0,0],"split_type":[0,0,0,0,0,0,0,0,0,0,0,0,0,0,0,0,0,0,0,0,0,0,0,0,0,0,0,0,0,0,0,0,0,0,0,0,0,0,0,0,0,0,0,0,0,0,0,0,0,0,0,0,0,0,0,0,0,0,0,0,0,0,0,0,0,0,0,0,0,0,0,0,0,0,0],"sum_hessian":[5.212977E2,3.017518E2,2.1954594E2,1.288109E2,1.729409E2,2.0786656E2,1.1679393E1,9.90428E1,2.9768099E1,1.6715009E2,5.790823E0,2.056188E2,2.2477496E0,8.145922E0,3.533471E0,2.7879017E1,7.116379E1,1.986771E1,9.900388E0,6.01107E0,1.61139E2,2.940548E0,2.850275E0,1.78841E1,1.8773471E2,1.1981292E0,1.0496204E0,1.073865E0,7.072057E0,2.5269597E0,1.0065116E0,2.3982634E1,3.8963835E0,3.417417E1,3.6989616E1,5.1095257E0,1.4758185E1,7.0076437E0,2.8927445E0,3.5816417E0,2.429428E0,3.167421E0,1.5797159E2,1.063806E0,1.8767419E0,1.080724E0,1.769551E0,1.3429014E1,4.4550843E0,1.1342831E0,1.8660042E2,1.2037529E1,1.1945104E1,1.363049E0,3.281112E1,8.470809E0,2.8518806E1,2.2676518E0,2.8418736E0,1.6147356E0,1.314345E1,5.6386266E0,1.3690171E0,1.8266852E0,1.0660594E0,1.5376364E0,1.6297846E0,1.5660783E2,1.3637599E0,1.4011649E0,1.202785E1,3.1546085E0,1.3004758E0,1.3519789E0,1.8524844E2],"tree_param":{"num_deleted":"0","num_feature":"1280","num_nodes":"75","size_leaf_vector":"1"}},{"base_weights":[-2.2331964E-2,-7.906691E-1,1.1154735E0,-2.6544052E-1,-1.174674E0,1.2154229E0,-4.6775588E-1,-4.7402197E-1,5.72768E-1,-1.2268234E0,2.8670457E-1,1.2083343E-1,1.2593508E0,-6.520783E-2,5.8247906E-1,-8.16828E-1,-1.0274379E-1,9.9470276E-1,-4.794075E-1,2.1242214E-2,-1.2464474E0,4.882351E-2,-6.9780445E-1,6.8970114E-1,-5.7214182E-2,1.2738973E0,-1.610878E-2,-4.194653E-2,5.199353E-2,-3.2368815E-1,-1.2194281E0,5.991284E-1,-5.5929863E-1,1.1574997E0,-2.03697E-2,-5.7563078E-2,2.6301497E-1,-1.2622738E0,8.502118E-3,-3.2282562E-3,-4.7946963E-2,5.4925818E-2,-3.319215E-2,1.288482E0,-1.405963E-2,5.3486396E-3,-6.2041845E-2,8.8254595E-3,-6.690308E-2,-2.5053209E-2,4.7485016E-2,4.129251E-2,-3.6049422E-2,6.484089E-2,7.170459E-4,6.083637E-2,-1.994731E-2,-4.013982E-2,-6.566718E-2,-3.0685845E-3,6.5029584E-2],"categories":[],"categories_nodes":[],"categories_segments":[],"categories_sizes":[],"default_left":[0,0,0,0,0,0,0,0,0,0,0,0,0,0,0,0,0,0,0,0,0,0,0,0,0,0,0,0,0,0,0,0,0,0,0,0,0,0,0,0,0,0,0,0,0,0,0,0,0,0,0,0,0,0,0,0,0,0,0,0,0],"id":14,"left_children":[1,3,5,7,9,11,13,15,17,19,21,23,25,-1,27,29,31,33,35,-1,37,-1,39,41,-1,43,-1,-1,-1,45,47,49,51,53,-1,-1,55,57,-1,-1,-1,-1,-1,59,-1,-1,-1,-1,-1,-1,-1,-1,-1,-1,-1,-1,-1,-1,-1,-1,-1],"loss_changes":[4.5597964E2,6.2479523E1,3.3839294E1,2.3485512E1,1.4035156E1,9.370361E0,1.2360989E1,1.3517746E1,1.2423418E1,6.1547546E0,5.43292E0,7.084551E0,4.7882996E0,0E0,5.1284304E0,1.0608311E1,1.714136E1,4.930002E0,4.481318E0,0E0,4.065277E0,0E0,5.112003E-1,4.413458E0,0E0,4.6436157E0,0E0,0E0,0E0,1.0509094E1,5.229107E0,8.6345005E0,7.828124E0,2.8100529E0,0E0,0E0,3.5117114E0,2.9345093E0,0E0,0E0,0E0,0E0,0E0,3.1396484E0,0E0,0E0,0E0,0E0,0E0,0E0,0E0,0E0,0E0,0E0,0E0,0E0,0E0,0E0,0E0,0E0,0E0],"parents":[2147483647,0,0,1,1,2,2,3,3,4,4,5,5,6,6,7,7,8,8,9,9,10,10,11,11,12,12,14,14,15,15,16,16,17,17,18,18,20,20,22,22,23,23,25,25,29,29,30,30,31,31,32,32,33,33,36,36,37,37,43,43],"right_children":[2,4,6,8,10,12,14,16,18,20,22,24,26,-1,28,30,32,34,36,-1,38,-1,40,42,-1,44,-1,-1,-1,46,48,50,52,54,-1,-1,56,58,-1,-1,-1,-1,-1,60,-1,-1,-1,-1,-1,-1,-1,-1,-1,-1,-1,-1,-1,-1,-1,-1,-1],"split_conditions":[9.829451E-2,4.589487E-3,3.9629176E-2,-3.0359287E-2,2.6194102E-1,-3.1618584E-2,3.0036181E-2,-9.543461E-2,-5.143825E-3,-1.8952364E-1,-8.0345385E-2,3.2360125E-1,-6.702854E-2,-6.520783E-2,1.4188945E-2,-5.5423427E-2,-3.1177862E-2,1.8985373E-1,-3.340777E-2,2.1242214E-2,5.730254E-2,4.882351E-2,5.023183E-2,-6.999487E-2,-5.7214182E-2,9.081966E-2,-1.610878E-2,-4.194653E-2,5.199353E-2,-9.210765E-2,-1.7185536E-1,-1.8537718E-1,-9.153175E-2,-1.3268873E-2,-2.03697E-2,-5.7563078E-2,-4.5752835E-2,-4.687215E-2,8.502118E-3,-3.2282562E-3,-4.7946963E-2,5.4925818E-2,-3.319215E-2,-7.0550784E-2,-1.405963E-2,5.3486396E-3,-6.2041845E-2,8.8254595E-3,-6.690308E-2,-2.5053209E-2,4.7485016E-2,4.129251E-2,-3.6049422E-2,6.484089E-2,7.170459E-4,6.083637E-2,-1.994731E-2,-4.013982E-2,-6.566718E-2,-3.0685845E-3,6.5029584E-2],"split_indices":[356,880,259,231,509,1035,1046,215,825,1102,807,52,729,0,294,925,891,366,384,0,153,0,1025,848,0,1141,0,0,0,94,1268,1229,773,0,0,0,792,709,0,0,0,0,0,26,0,0,0,0,0,0,0,0,0,0,0,0,0,0,0,0,0],"split_type":[0,0,0,0,0,0,0,0,0,0,0,0,0,0,0,0,0,0,0,0,0,0,0,0,0,0,0,0,0,0,0,0,0,0,0,0,0,0,0,0,0,0,0,0,0,0,0,0,0,0,0,0,0,0,0,0,0,0,0,0,0],"sum_hessian":[5.195767E2,3.1032538E2,2.0925136E2,1.3177687E2,1.7854851E2,1.9704427E2,1.2207099E1,1.0586716E2,2.5909706E1,1.725515E2,5.997014E0,7.74736E0,1.892969E2,6.6607456E0,5.5463533E0,5.442021E1,5.1446945E1,1.8532555E1,7.3771505E0,1.783606E0,1.7076788E2,3.5311728E0,2.465841E0,5.6580257E0,2.0893342E0,1.8776442E2,1.5324904E0,1.1471763E0,4.399177E0,2.5270584E1,2.914963E1,2.0152998E1,3.1293947E1,1.6760904E1,1.7716515E0,3.5835445E0,3.7936063E0,1.6898866E2,1.7792264E0,1.084129E0,1.3817121E0,4.490239E0,1.1677864E0,1.8618964E2,1.5747752E0,1.7797068E1,7.4735165E0,2.245022E0,2.6904608E1,4.7661643E0,1.5386834E1,2.841764E0,2.8452183E1,1.4820318E1,1.940586E0,1.2109214E0,2.5826848E0,1.8576324E1,1.5041234E2,1.6193049E0,1.8457034E2],"tree_param":{"num_deleted":"0","num_feature":"1280","num_nodes":"61","size_leaf_vector":"1"}},{"base_weights":[4.452378E-3,-7.4466085E-1,1.0476943E0,-3.3767813E-1,-1.2213073E0,1.1857446E0,-2.854719E-1,-9.6992666E-1,-9.755747E-2,-1.2491711E0,1.9624001E-1,1.2285417E0,-1.4667128E-2,-8.504365E-1,8.597805E-1,4.123022E-1,-1.1358855E0,-3.0434886E-1,6.8161273E-1,-2.7320933E-1,-1.2787333E0,4.867535E-2,-3.8704544E-2,-1.4890237E-1,1.245883E0,-5.7867497E-2,7.470028E-1,-1.1419252E0,5.4951864E-1,-1.3500695E-2,5.762521E-2,5.6178756E-2,-4.335898E-2,-1.1922475E0,6.6571473E-3,3.8606414E-1,-4.8422813E-1,1.1844193E0,-3.501366E-1,-4.8573367E-2,3.841941E-2,2.6471387E-3,-1.2922691E0,3.59938E-2,-4.516795E-2,1.2634473E0,-1.15444385E-1,-1.1086273E-2,5.2022696E-2,1.4450379E-2,-6.671158E-2,1.2319759E-3,3.9806213E-2,7.0678066E-3,-6.1814826E-2,4.3827042E-2,-1.8995864E-2,-3.3994917E-2,1.46677345E-2,6.6850245E-2,-1.9452896E-2,-4.248207E-2,4.7510564E-2,-9.116008E-3,-6.554725E-2,5.8970456E-3,6.38553E-2,4.2371597E-2,-4.910091E-2],"categories":[],"categories_nodes":[],"categories_segments":[],"categories_sizes":[],"default_left":[0,0,0,0,0,0,0,0,0,0,0,0,0,0,0,0,0,0,0,0,0,0,0,0,0,0,0,0,0,0,0,0,0,0,0,0,0,0,0,0,0,0,0,0,0,0,0,0,0,0,0,0,0,0,0,0,0,0,0,0,0,0,0,0,0,0,0,0,0],"id":15,"left_children":[1,3,5,7,9,11,13,15,17,19,21,23,25,27,29,31,33,35,37,39,41,-1,-1,43,45,-1,47,49,51,-1,-1,-1,-1,53,-1,55,57,59,61,-1,-1,-1,63,-1,-1,65,67,-1,-1,-1,-1,-1,-1,-1,-1,-1,-1,-1,-1,-1,-1,-1,-1,-1,-1,-1,-1,-1,-1],"loss_changes":[3.911505E2,5.610077E1,3.883777E1,2.3972504E1,5.5298615E0,9.766296E0,1.3952976E1,1.04522705E1,1.8898842E1,3.4403687E0,3.350679E0,4.5622864E0,7.409821E0,6.4167643E0,2.708167E0,5.887933E0,2.9570923E0,1.1657967E1,1.3196736E1,4.480048E0,2.3615875E0,0E0,0E0,2.7289705E0,4.475128E0,0E0,1.6862376E0,3.7061472E0,3.842258E-1,0E0,0E0,0E0,0E0,2.3812294E0,0E0,7.71445E0,1.1415714E1,4.552271E0,6.5524163E0,0E0,0E0,0E0,2.372467E0,0E0,0E0,2.647461E0,3.5211484E0,0E0,0E0,0E0,0E0,0E0,0E0,0E0,0E0,0E0,0E0,0E0,0E0,0E0,0E0,0E0,0E0,0E0,0E0,0E0,0E0,0E0,0E0],"parents":[2147483647,0,0,1,1,2,2,3,3,4,4,5,5,6,6,7,7,8,8,9,9,10,10,11,11,12,12,13,13,14,14,15,15,16,16,17,17,18,18,19,19,20,20,23,23,24,24,26,26,27,27,28,28,33,33,35,35,36,36,37,37,38,38,42,42,45,45,46,46],"right_children":[2,4,6,8,10,12,14,16,18,20,22,24,26,28,30,32,34,36,38,40,42,-1,-1,44,46,-1,48,50,52,-1,-1,-1,-1,54,-1,56,58,60,62,-1,-1,-1,64,-1,-1,66,68,-1,-1,-1,-1,-1,-1,-1,-1,-1,-1,-1,-1,-1,-1,-1,-1,-1,-1,-1,-1,-1,-1],"split_conditions":[-6.8054833E-3,-1.3607005E-2,-2.3391176E-2,-9.4103284E-2,3.7980795E-2,3.3815578E-2,2.794451E-1,-5.1335216E-2,7.200781E-4,-1.7237936E-1,-6.540534E-2,-7.183263E-2,-1.2753046E-1,3.1004816E-2,-1.4123201E-1,-9.5763445E-2,1.03777945E-1,-4.9076077E-2,-4.314599E-2,1.3351493E0,-1.797995E-1,4.867535E-2,-3.8704544E-2,-1.0408667E-1,-1.088329E-2,-5.7867497E-2,-3.0314084E-2,-1.3248801E-1,7.446784E-2,-1.3500695E-2,5.762521E-2,5.6178756E-2,-4.335898E-2,-2.3599592E-1,6.6571473E-3,-5.6290016E-2,-6.117099E-3,3.1503367E-1,-6.828866E-3,-4.8573367E-2,3.841941E-2,2.6471387E-3,-1.5096094E-1,3.59938E-2,-4.516795E-2,-1.0431048E-1,3.919109E-2,-1.1086273E-2,5.2022696E-2,1.4450379E-2,-6.671158E-2,1.2319759E-3,3.9806213E-2,7.0678066E-3,-6.1814826E-2,4.3827042E-2,-1.8995864E-2,-3.3994917E-2,1.46677345E-2,6.6850245E-2,-1.9452896E-2,-4.248207E-2,4.7510564E-2,-9.116008E-3,-6.554725E-2,5.8970456E-3,6.38553E-2,4.2371597E-2,-4.910091E-2],"split_indices":[231,62,244,233,326,773,830,1016,779,87,429,89,582,153,127,991,801,954,259,437,404,0,0,708,40,0,740,351,1049,0,0,0,0,354,0,1095,232,478,1008,0,0,0,1263,0,0,321,1014,0,0,0,0,0,0,0,0,0,0,0,0,0,0,0,0,0,0,0,0,0,0],"split_type":[0,0,0,0,0,0,0,0,0,0,0,0,0,0,0,0,0,0,0,0,0,0,0,0,0,0,0,0,0,0,0,0,0,0,0,0,0,0,0,0,0,0,0,0,0,0,0,0,0,0,0,0,0,0,0,0,0,0,0,0,0,0,0,0,0,0,0,0,0],"sum_hessian":[4.985101E2,2.9032483E2,2.0818526E2,1.5752834E2,1.3279651E2,1.8875058E2,1.9434673E1,4.252328E1,1.1500504E2,1.3035303E2,2.4434826E0,1.8223027E2,6.5203066E0,1.3186877E1,6.247796E0,4.3991895E0,3.8124092E1,9.136596E1,2.3639086E1,4.1334596E0,1.2621957E2,1.3548945E0,1.0885882E0,2.1713276E0,1.8005894E2,2.4001024E0,4.120204E0,1.10669155E1,2.1199613E0,1.301627E0,4.946169E0,2.905727E0,1.4934626E0,3.6560802E1,1.5632894E0,1.8647367E1,7.271859E1,1.5794108E1,7.8449774E0,2.5148823E0,1.6185774E0,1.2407558E0,1.24978806E2,1.0305058E0,1.1408218E0,1.7783633E2,2.2226074E0,1.0147561E0,3.1054482E0,1.251533E0,9.815383E0,1.0292356E0,1.0907257E0,1.0983641E0,3.546244E1,1.1280104E1,7.3672643E0,5.8199066E1,1.4519527E1,1.4534894E1,1.2592142E0,5.91821E0,1.9267671E0,2.2461805E0,1.2273263E2,2.2090003E0,1.7562733E2,1.0632676E0,1.1593397E0],"tree_param":{"num_deleted":"0","num_feature":"1280","num_nodes":"69","size_leaf_vector":"1"}},{"base_weights":[-1.5289214E-2,-7.19797E-1,1.0602025E0,-1.7390028E-1,-1.083913E0,1.7163306E-1,1.2173861E0,-4.9034736E-1,6.1146E-1,-6.2456644E-1,-1.2129678E0,7.101505E-1,-7.98389E-1,1.2357701E0,-3.375945E-2,-6.7331445E-1,3.062522E-1,1.0685769E0,-2.3893413E-1,-9.7291464E-1,5.8456165E-1,-1.2336028E0,3.727921E-2,-4.868806E-2,9.2829764E-1,-1.1358932E0,2.8967008E-2,1.2582893E0,-2.611129E-1,-2.0883244E-1,-1.007691E0,7.46135E-1,-5.640409E-2,1.1895356E0,-6.653718E-3,-8.811852E-1,4.6584824E-1,-1.2059144E0,-2.5315572E-2,1.3586402E0,-4.8087323E-1,-1.2527939E0,1.9573286E-2,1.236207E0,-1.6431534E-1,-7.3667555E-3,-6.650006E-2,-5.905603E-3,1.2676643E0,3.501763E-2,-5.3182084E-2,9.509704E-3,-5.3167183E-2,-5.3757574E-2,-3.0108282E-4,-1.3980388E-2,5.540944E-2,6.604234E-2,1.4024986E-4,-6.49197E-2,2.2775538E-2,5.749625E-2,-2.923641E-2,-6.5345146E-2,-3.4210612E-3,5.350942E-2,-3.9698597E-2,7.863694E-2,7.1692267E-3,3.162063E-2,-5.2155938E-2,-6.3834935E-2,-4.1723214E-3,1.4968288E-2,6.41497E-2,3.511223E-2,-5.5253047E-2,6.380991E-2,6.104375E-4],"categories":[],"categories_nodes":[],"categories_segments":[],"categories_sizes":[],"default_left":[0,0,0,0,0,0,0,0,0,0,0,0,0,0,0,0,0,0,0,0,0,0,0,0,0,0,0,0,0,0,0,0,0,0,0,0,0,0,0,0,0,0,0,0,0,0,0,0,0,0,0,0,0,0,0,0,0,0,0,0,0,0,0,0,0,0,0,0,0,0,0,0,0,0,0,0,0,0,0],"id":16,"left_children":[1,3,5,7,9,11,13,15,17,19,21,23,25,27,-1,29,31,33,35,37,39,41,-1,-1,43,45,-1,47,49,51,53,55,-1,57,-1,59,61,63,65,67,69,71,-1,73,75,-1,-1,-1,77,-1,-1,-1,-1,-1,-1,-1,-1,-1,-1,-1,-1,-1,-1,-1,-1,-1,-1,-1,-1,-1,-1,-1,-1,-1,-1,-1,-1,-1,-1],"loss_changes":[3.8109793E2,6.0215088E1,2.7595917E1,3.0814468E1,1.003772E1,1.6805908E1,6.714081E0,1.3043095E1,1.4136543E1,1.8260118E1,6.622345E0,8.441292E0,6.0371113E0,5.9821167E0,0E0,1.09620285E1,1.1654799E1,3.5606098E0,6.431387E0,7.251915E0,8.916354E0,4.8568115E0,0E0,0E0,6.4866734E0,1.6518421E0,0E0,2.2840576E0,3.3019543E0,1.0899023E1,2.8021507E0,5.404237E0,0E0,3.326025E0,0E0,4.6654754E0,5.700373E0,2.9492798E0,7.191285E0,1.3523531E0,3.761006E0,3.7680511E0,0E0,2.5973892E-1,4.8430805E0,0E0,0E0,0E0,1.7454529E0,0E0,0E0,0E0,0E0,0E0,0E0,0E0,0E0,0E0,0E0,0E0,0E0,0E0,0E0,0E0,0E0,0E0,0E0,0E0,0E0,0E0,0E0,0E0,0E0,0E0,0E0,0E0,0E0,0E0,0E0],"parents":[2147483647,0,0,1,1,2,2,3,3,4,4,5,5,6,6,7,7,8,8,9,9,10,10,11,11,12,12,13,13,15,15,16,16,17,17,18,18,19,19,20,20,21,21,24,24,25,25,27,27,28,28,29,29,30,30,31,31,33,33,35,35,36,36,37,37,38,38,39,39,40,40,41,41,43,43,44,44,48,48],"right_children":[2,4,6,8,10,12,14,16,18,20,22,24,26,28,-1,30,32,34,36,38,40,42,-1,-1,44,46,-1,48,50,52,54,56,-1,58,-1,60,62,64,66,68,70,72,-1,74,76,-1,-1,-1,78,-1,-1,-1,-1,-1,-1,-1,-1,-1,-1,-1,-1,-1,-1,-1,-1,-1,-1,-1,-1,-1,-1,-1,-1,-1,-1,-1,-1,-1,-1],"split_conditions":[6.291279E-2,4.3611865E-2,8.286182E-2,6.188017E-2,-7.403541E-2,-1.4095552E-2,-5.1834404E-2,-6.117099E-3,-5.2401207E-2,1.5899885E-2,4.38312E-1,-1.5028852E-1,1.3837355E-1,7.687251E-2,-3.375945E-2,-4.3474086E-2,-1.3136268E-3,-3.136179E-2,6.9045685E-2,-1.6870245E-1,-9.281966E-2,2.0081246E0,3.727921E-2,-4.868806E-2,2.0122798E-1,-6.44144E-2,2.8967008E-2,-1.60146E-1,-9.4378576E-2,-2.8657354E-3,4.4824634E-2,-9.510913E-2,-5.640409E-2,-5.193788E-2,-6.653718E-3,-8.117547E-2,-7.403815E-2,1.1356919E-1,-1.9202325E-1,-5.0938003E-2,3.914208E-2,2.259577E-2,1.9573286E-2,-7.4441254E-2,5.729111E-1,-7.3667555E-3,-6.650006E-2,-5.905603E-3,1.3128366E-1,3.501763E-2,-5.3182084E-2,9.509704E-3,-5.3167183E-2,-5.3757574E-2,-3.0108282E-4,-1.3980388E-2,5.540944E-2,6.604234E-2,1.4024986E-4,-6.49197E-2,2.2775538E-2,5.749625E-2,-2.923641E-2,-6.5345146E-2,-3.4210612E-3,5.350942E-2,-3.9698597E-2,7.863694E-2,7.1692267E-3,3.162063E-2,-5.2155938E-2,-6.3834935E-2,-4.1723214E-3,1.4968288E-2,6.41497E-2,3.511223E-2,-5.5253047E-2,6.380991E-2,6.104375E-4],"split_indices":[152,78,1046,472,330,1007,550,232,939,233,458,1220,1082,88,0,89,37,538,233,1225,1273,642,0,0,580,1267,0,322,994,1181,676,33,0,851,0,121,24,587,1018,65,56,873,0,879,426,0,0,0,455,0,0,0,0,0,0,0,0,0,0,0,0,0,0,0,0,0,0,0,0,0,0,0,0,0,0,0,0,0,0],"split_type":[0,0,0,0,0,0,0,0,0,0,0,0,0,0,0,0,0,0,0,0,0,0,0,0,0,0,0,0,0,0,0,0,0,0,0,0,0,0,0,0,0,0,0,0,0,0,0,0,0,0,0,0,0,0,0,0,0,0,0,0,0,0,0,0,0,0,0,0,0,0,0,0,0,0,0,0,0,0,0],"sum_hessian":[5.0096472E2,3.028872E2,1.9807751E2,1.21783005E2,1.811042E2,3.0086803E1,1.679907E2,8.707379E1,3.470921E1,4.1002594E1,1.4010161E2,1.9518703E1,1.05681E1,1.6671829E2,1.2724133E0,7.0935684E1,1.613811E1,2.2407707E1,1.2301503E1,3.1983536E1,9.019056E0,1.390072E2,1.0944166E0,1.8413393E0,1.7677364E1,8.629622E0,1.9384779E0,1.6440437E2,2.3139162E0,3.037138E1,4.0564304E1,1.2717652E1,3.4204566E0,2.036758E1,2.0401266E0,6.305322E0,5.9961805E0,2.5452553E1,6.530984E0,5.064389E0,3.9546676E0,1.3761118E2,1.39603E0,1.368841E1,3.9889538E0,1.705064E0,6.924558E0,1.0337583E0,1.6337062E2,1.1106389E0,1.2032773E0,2.1233507E1,9.137874E0,3.7936028E1,2.628276E0,3.3772383E0,9.340414E0,1.8236687E1,2.1308937E0,4.8272862E0,1.4780362E0,3.5742576E0,2.4219232E0,2.3240309E1,2.2122438E0,2.5311933E0,3.9997904E0,4.055709E0,1.0086803E0,1.2851608E0,2.6695068E0,1.347644E2,2.8467643E0,1.0030143E0,1.2685396E1,2.2083106E0,1.7806432E0,1.6225122E2,1.1194013E0],"tree_param":{"num_deleted":"0","num_feature":"1280","num_nodes":"79","size_leaf_vector":"1"}},{"base_weights":[-4.982405E-3,-6.524273E-1,1.1162202E0,-9.733451E-2,-1.0947741E0,2.9987806E-1,1.2103591E0,-4.5312524E-1,6.2612164E-1,-1.1607352E0,-2.6747265E-1,7.600516E-1,-7.6849467E-1,-2.3491038E-2,1.2306901E0,1.01304114E-1,-6.8287486E-1,8.4120065E-1,-4.1800195E-1,3.7077587E-2,-1.1785148E0,5.2938175E-1,-9.9154985E-1,9.8728615E-1,-3.409325E-2,1.3901002E-2,-6.363295E-2,1.253081E0,2.088211E-1,-5.787522E-1,7.901556E-1,7.5458133E-1,-7.644802E-1,9.505744E-1,-4.019029E-2,-8.804798E-1,5.5257626E-2,-1.2557458E0,-7.2596866E-1,-3.2152545E-2,1.1967273E0,-2.490069E-3,-5.640266E-2,-3.172446E-2,6.018729E-2,5.2954108E-3,1.2603402E0,-3.657956E-2,3.7361708E-2,-5.335604E-2,2.3878595E-2,5.613702E-2,-4.9738258E-2,-2.1427335E-2,6.691469E-2,-4.7354855E-2,-2.9662866E-3,5.0993808E-2,-3.358301E-2,-6.0512185E-2,2.0227365E-2,-1.6295556E-3,-6.348239E-2,4.8716746E-2,-4.4822555E-2,6.6619264E-3,7.1590215E-2,1.1382063E-2,6.334429E-2],"categories":[],"categories_nodes":[],"categories_segments":[],"categories_sizes":[],"default_left":[0,0,0,0,0,0,0,0,0,0,0,0,0,0,0,0,0,0,0,0,0,0,0,0,0,0,0,0,0,0,0,0,0,0,0,0,0,0,0,0,0,0,0,0,0,0,0,0,0,0,0,0,0,0,0,0,0,0,0,0,0,0,0,0,0,0,0,0,0],"id":17,"left_children":[1,3,5,7,9,11,13,15,17,19,21,23,25,-1,27,29,31,33,35,-1,37,39,41,43,-1,-1,-1,45,47,49,51,53,55,57,-1,59,-1,61,63,-1,65,-1,-1,-1,-1,-1,67,-1,-1,-1,-1,-1,-1,-1,-1,-1,-1,-1,-1,-1,-1,-1,-1,-1,-1,-1,-1,-1,-1],"loss_changes":[3.50351E2,7.501784E1,1.3214645E1,3.5491154E1,8.975647E0,1.0218655E1,5.9782104E0,1.1822466E1,1.0572224E1,6.1943207E0,8.524938E0,5.325859E0,3.728952E0,0E0,3.3183594E0,1.3529175E1,8.244497E0,7.6137066E0,6.9196544E0,0E0,4.5488434E0,6.4443E0,9.224124E-1,5.21342E0,0E0,0E0,0E0,1.1399231E0,2.8529568E0,8.051149E0,9.597074E0,3.3461337E0,7.9729156E0,4.749691E0,0E0,3.469512E0,0E0,2.2046661E0,8.162598E0,0E0,1.0521178E0,0E0,0E0,0E0,0E0,0E0,7.3809814E-1,0E0,0E0,0E0,0E0,0E0,0E0,0E0,0E0,0E0,0E0,0E0,0E0,0E0,0E0,0E0,0E0,0E0,0E0,0E0,0E0,0E0,0E0],"parents":[2147483647,0,0,1,1,2,2,3,3,4,4,5,5,6,6,7,7,8,8,9,9,10,10,11,11,12,12,14,14,15,15,16,16,17,17,18,18,20,20,21,21,22,22,23,23,27,27,28,28,29,29,30,30,31,31,32,32,33,33,35,35,37,37,38,38,40,40,46,46],"right_children":[2,4,6,8,10,12,14,16,18,20,22,24,26,-1,28,30,32,34,36,-1,38,40,42,44,-1,-1,-1,46,48,50,52,54,56,58,-1,60,-1,62,64,-1,66,-1,-1,-1,-1,-1,68,-1,-1,-1,-1,-1,-1,-1,-1,-1,-1,-1,-1,-1,-1,-1,-1,-1,-1,-1,-1,-1,-1],"split_conditions":[2.2944905E-1,4.900303E-4,-5.7249483E-2,-5.1122442E-2,8.5796463E-1,-4.933518E-2,-1.550616E-1,-8.0142386E-2,-4.9829124E-3,-1.9604701E-1,-2.0170823E-2,7.7111065E-1,-6.0291346E-2,-2.3491038E-2,7.591137E-2,-7.556246E-2,-1.3599145E-1,4.6708298E-1,-4.8271105E-2,3.7077587E-2,-1.3203199E-1,-1.8179077E-1,-9.489298E-3,-1.2581772E-1,-3.409325E-2,1.3901002E-2,-6.363295E-2,-8.315831E-2,3.790285E-1,-1.6892682E-1,-2.4192866E-2,-1.4142096E-1,-8.363637E-3,-1.4301501E-2,-4.019029E-2,-1.4914813E-2,5.5257626E-2,-1.736933E-1,-5.3753763E-2,-3.2152545E-2,-1.5467587E-1,-2.490069E-3,-5.640266E-2,-3.172446E-2,6.018729E-2,5.2954108E-3,-1.9817448E-1,-3.657956E-2,3.7361708E-2,-5.335604E-2,2.3878595E-2,5.613702E-2,-4.9738258E-2,-2.1427335E-2,6.691469E-2,-4.7354855E-2,-2.9662866E-3,5.0993808E-2,-3.358301E-2,-6.0512185E-2,2.0227365E-2,-1.6295556E-3,-6.348239E-2,4.8716746E-2,-4.4822555E-2,6.6619264E-3,7.1590215E-2,1.1382063E-2,6.334429E-2],"split_indices":[509,880,322,231,1155,602,697,941,298,993,179,841,1047,0,773,483,528,381,628,0,952,1150,299,1098,0,0,0,664,463,1211,1235,587,1216,374,0,837,0,1163,941,0,338,0,0,0,0,0,887,0,0,0,0,0,0,0,0,0,0,0,0,0,0,0,0,0,0,0,0,0,0],"split_type":[0,0,0,0,0,0,0,0,0,0,0,0,0,0,0,0,0,0,0,0,0,0,0,0,0,0,0,0,0,0,0,0,0,0,0,0,0,0,0,0,0,0,0,0,0,0,0,0,0,0,0,0,0,0,0,0,0,0,0,0,0,0,0,0,0,0,0,0,0],"sum_hessian":[4.8062918E2,3.0495135E2,1.7567781E2,1.357816E2,1.6916975E2,1.8596903E1,1.5708092E2,9.126954E1,4.451206E1,1.563045E2,1.2865251E1,1.3199957E1,5.396946E0,1.6137064E0,1.5546721E2,2.6904049E1,6.436549E1,3.7070297E1,7.441762E0,1.0704179E0,1.5523409E2,6.252832E0,6.6124187E0,1.1675316E1,1.524641E0,1.900517E0,3.496429E0,1.519123E2,3.5549052E0,1.361888E1,1.3285168E1,3.0147495E0,6.1350746E1,3.515504E1,1.915255E0,6.032148E0,1.4096144E0,1.3108795E2,2.4146132E1,2.2813044E0,3.9715273E0,1.0098958E0,5.602523E0,1.147408E0,1.0527908E1,1.0532845E0,1.5085901E2,1.163646E0,2.3912592E0,9.306159E0,4.3127217E0,1.1511257E1,1.7739104E0,1.0838063E0,1.9309434E0,4.8458206E1,1.2892539E1,3.4070854E1,1.0841885E0,4.8466067E0,1.1855409E0,1.5107391E0,1.2957722E2,1.7707201E0,2.2375412E1,1.0025908E0,2.9689367E0,1.1755124E0,1.496835E2],"tree_param":{"num_deleted":"0","num_feature":"1280","num_nodes":"69","size_leaf_vector":"1"}},{"base_weights":[5.132525E-4,-6.3241357E-1,1.0829896E0,-1.062472E-1,-1.0426173E0,1.1506321E0,-4.2403984E-1,-2.798435E-1,7.858592E-1,-1.192059E0,-5.664995E-1,-5.282423E-1,1.1885852E0,7.198573E-1,-1.0837194E0,-1.1840713E-1,-1.0426506E0,-4.272121E-2,9.6155E-1,2.6563445E-2,-1.2210387E0,5.3417355E-1,-8.822049E-1,-5.065858E-2,2.4150357E-2,1.2150735E0,1.9759387E-1,9.91337E-3,4.2783912E-2,-7.3254937E-3,-6.289444E-2,-2.940715E-1,6.994356E-1,-1.1289178E0,1.2881477E-2,-2.1452256E-1,1.1158125E0,1.1500218E-2,-1.2349256E0,9.6682274E-1,-4.540175E-2,3.716543E-2,-9.885323E-1,1.2272601E0,-3.0236316E-3,3.989274E-2,-4.6596806E-2,3.591897E-3,-3.1136645E-2,5.9272557E-2,-1.3488752E-2,-5.9578296E-2,-7.3945187E-3,2.6306791E-2,-4.1543037E-2,6.144433E-2,-1.0054174E-2,-3.2508262E-5,-6.2493034E-2,-3.9681055E-2,6.729719E-2,-1.6358888E-3,-5.969683E-2,6.8623438E-3,6.205645E-2],"categories":[],"categories_nodes":[],"categories_segments":[],"categories_sizes":[],"default_left":[0,0,0,0,0,0,0,0,0,0,0,0,0,0,0,0,0,0,0,0,0,0,0,0,0,0,0,0,0,0,0,0,0,0,0,0,0,0,0,0,0,0,0,0,0,0,0,0,0,0,0,0,0,0,0,0,0,0,0,0,0,0,0,0,0],"id":18,"left_children":[1,3,5,7,9,11,13,15,17,19,21,23,25,27,29,31,33,-1,35,-1,37,39,41,-1,-1,43,45,-1,-1,-1,-1,47,49,51,-1,53,55,-1,57,59,-1,-1,61,63,-1,-1,-1,-1,-1,-1,-1,-1,-1,-1,-1,-1,-1,-1,-1,-1,-1,-1,-1,-1,-1],"loss_changes":[3.2100476E2,6.3703117E1,1.8110458E1,2.0451012E1,1.1137619E1,1.1186996E1,6.9352446E0,1.343398E1,7.029701E0,6.9141846E0,1.4915498E1,2.625342E0,4.0218353E0,8.426869E-2,7.253151E-1,1.3421744E1,2.4335136E0,0E0,3.854908E0,0E0,2.7763672E0,7.0478E0,6.38299E0,0E0,0E0,2.5293121E0,4.4190392E0,0E0,0E0,0E0,0E0,9.236283E0,8.121012E0,9.3614197E-1,0E0,1.874938E0,2.8945332E0,0E0,2.2604675E0,6.4680214E0,0E0,0E0,6.067198E0,2.1953888E0,0E0,0E0,0E0,0E0,0E0,0E0,0E0,0E0,0E0,0E0,0E0,0E0,0E0,0E0,0E0,0E0,0E0,0E0,0E0,0E0,0E0],"parents":[2147483647,0,0,1,1,2,2,3,3,4,4,5,5,6,6,7,7,8,8,9,9,10,10,11,11,12,12,13,13,14,14,15,15,16,16,18,18,20,20,21,21,22,22,25,25,26,26,31,31,32,32,33,33,35,35,36,36,38,38,39,39,42,42,43,43],"right_children":[2,4,6,8,10,12,14,16,18,20,22,24,26,28,30,32,34,-1,36,-1,38,40,42,-1,-1,44,46,-1,-1,-1,-1,48,50,52,-1,54,56,-1,58,60,-1,-1,62,64,-1,-1,-1,-1,-1,-1,-1,-1,-1,-1,-1,-1,-1,-1,-1,-1,-1,-1,-1,-1,-1],"split_conditions":[4.8785385E-2,2.1428637E-1,-9.5628016E-4,-1.098616E-3,-8.1518054E-2,-2.3864616E-2,-1.4364737E-1,3.0740988E-2,-1.4083233E-1,-1.7289078E-1,-1.1338369E-1,8.786282E-3,4.2228472E-1,-8.8000834E-2,6.2268797E-2,-5.893371E-3,6.519284E-3,-4.272121E-2,-8.280477E-2,2.6563445E-2,-2.3286185E-1,-9.039855E-2,-1.699267E-1,-5.065858E-2,2.4150357E-2,3.72437E-1,-1.6802953E-1,9.91337E-3,4.2783912E-2,-7.3254937E-3,-6.289444E-2,-8.292408E-2,-1.1819508E-3,1.1155888E-1,1.2881477E-2,-1.01797245E-1,8.427489E-2,1.1500218E-2,-1.6475421E-1,-1.04674384E-1,-4.540175E-2,3.716543E-2,1.3446549E-1,-7.4745156E-2,-3.0236316E-3,3.989274E-2,-4.6596806E-2,3.591897E-3,-3.1136645E-2,5.9272557E-2,-1.3488752E-2,-5.9578296E-2,-7.3945187E-3,2.6306791E-2,-4.1543037E-2,6.144433E-2,-1.0054174E-2,-3.2508262E-5,-6.2493034E-2,-3.9681055E-2,6.729719E-2,-1.6358888E-3,-5.969683E-2,6.8623438E-3,6.205645E-2],"split_indices":[1046,983,714,815,815,356,515,373,1220,877,1273,996,961,656,593,779,1175,0,280,0,1018,515,552,0,0,1268,142,0,0,0,0,1041,1056,1271,0,328,105,0,780,70,0,0,52,321,0,0,0,0,0,0,0,0,0,0,0,0,0,0,0,0,0,0,0,0,0],"split_type":[0,0,0,0,0,0,0,0,0,0,0,0,0,0,0,0,0,0,0,0,0,0,0,0,0,0,0,0,0,0,0,0,0,0,0,0,0,0,0,0,0,0,0,0,0,0,0,0,0,0,0,0,0,0,0,0,0,0,0,0,0,0,0,0,0],"sum_hessian":[4.6653268E2,2.9465997E2,1.7187271E2,1.2963579E2,1.6502419E2,1.6471597E2,7.1567407E0,1.0909345E2,2.0542343E1,1.24456604E2,4.0567574E1,3.3557105E0,1.6136026E2,2.584297E0,4.5724435E0,9.099169E1,1.8101763E1,1.6136609E0,1.8928682E1,1.7716203E0,1.2268499E2,8.888116E0,3.1679457E1,2.2668004E0,1.0889103E0,1.5693929E2,4.420974E0,1.0421035E0,1.5421935E0,1.0051111E0,3.5673325E0,7.543043E1,1.5561264E1,1.709911E1,1.0026526E0,2.149628E0,1.6779053E1,1.0154753E0,1.2166951E2,7.090619E0,1.7974966E0,1.5771728E0,3.0102283E1,1.5549158E2,1.4477144E0,3.0785792E0,1.3423948E0,3.60624E1,3.9368023E1,1.0215527E1,5.3457375E0,1.5870983E1,1.2281268E0,1.0428177E0,1.1068102E0,1.5513804E1,1.2652487E0,1.4670967E0,1.20202415E2,1.0626942E0,6.0279245E0,5.529759E0,2.4572525E1,2.0904505E0,1.5340112E2],"tree_param":{"num_deleted":"0","num_feature":"1280","num_nodes":"65","size_leaf_vector":"1"}},{"base_weights":[3.1465713E-3,-6.4688486E-1,1.0333177E0,-2.5772277E-1,-1.1384757E0,1.1306813E0,-4.8132542E-1,-9.510622E-1,-3.7587233E-2,1.0924191E-2,-1.1622936E0,1.2008331E0,3.7437087E-1,-1.0781158E0,5.3370374E-1,7.631435E-2,-1.1028981E0,-2.6211107E-1,5.5698454E-1,-1.180462E0,1.8874265E-2,1.2155465E0,-1.5860086E-2,-7.341628E-1,9.778097E-1,-6.021834E-2,-7.6247714E-3,-2.8143186E-2,4.914203E-2,9.068186E-1,-4.573741E-2,-3.494113E-1,-1.2306694E0,6.0360825E-1,-4.2202073E-1,1.0061016E0,-3.1600556E-1,1.32545745E-2,-1.1968426E0,1.2292365E0,-7.613526E-3,-1.1902534E0,3.538581E-2,5.8598876E-2,-4.8088483E-3,4.7901386E-4,6.173241E-2,-5.0873198E-2,2.9247055E-2,-4.306296E-3,-6.4013146E-2,-2.0398106E-2,5.6229245E-2,2.1946437E-3,-3.61382E-2,-6.3958387E-3,6.1549515E-2,-3.666078E-2,3.740096E-2,-4.7721243E-3,-6.0823347E-2,6.1764944E-2,1.2950075E-2,-6.5385416E-2,-1.8258875E-2],"categories":[],"categories_nodes":[],"categories_segments":[],"categories_sizes":[],"default_left":[0,0,0,0,0,0,0,0,0,0,0,0,0,0,0,0,0,0,0,0,0,0,0,0,0,0,0,0,0,0,0,0,0,0,0,0,0,0,0,0,0,0,0,0,0,0,0,0,0,0,0,0,0,0,0,0,0,0,0,0,0,0,0,0,0],"id":19,"left_children":[1,3,5,7,9,11,13,15,17,-1,19,21,23,25,27,29,31,33,35,37,-1,39,-1,41,43,-1,-1,-1,-1,45,-1,47,49,51,53,55,57,-1,59,61,-1,63,-1,-1,-1,-1,-1,-1,-1,-1,-1,-1,-1,-1,-1,-1,-1,-1,-1,-1,-1,-1,-1,-1,-1],"loss_changes":[3.1233472E2,5.441613E1,2.715477E1,2.4523628E1,4.3283844E0,8.561859E0,7.602305E0,6.12669E0,1.65891E1,0E0,3.9159546E0,3.8470306E0,1.1333693E1,7.0871353E-1,2.9979916E0,5.7045717E0,2.8252983E0,1.2726536E1,1.3681136E1,3.2261047E0,0E0,3.0651855E0,0E0,4.896615E0,2.3450327E0,0E0,0E0,0E0,0E0,1.0837529E0,0E0,4.526935E0,1.5082474E0,8.078098E0,1.0769482E1,5.9578953E0,6.0260153E0,0E0,2.51326E0,5.7577515E-1,0E0,1.24640465E-2,0E0,0E0,0E0,0E0,0E0,0E0,0E0,0E0,0E0,0E0,0E0,0E0,0E0,0E0,0E0,0E0,0E0,0E0,0E0,0E0,0E0,0E0,0E0],"parents":[2147483647,0,0,1,1,2,2,3,3,4,4,5,5,6,6,7,7,8,8,10,10,11,11,12,12,13,13,14,14,15,15,16,16,17,17,18,18,19,19,21,21,23,23,24,24,29,29,31,31,32,32,33,33,34,34,35,35,36,36,38,38,39,39,41,41],"right_children":[2,4,6,8,10,12,14,16,18,-1,20,22,24,26,28,30,32,34,36,38,-1,40,-1,42,44,-1,-1,-1,-1,46,-1,48,50,52,54,56,58,-1,60,62,-1,64,-1,-1,-1,-1,-1,-1,-1,-1,-1,-1,-1,-1,-1,-1,-1,-1,-1,-1,-1,-1,-1,-1,-1],"split_conditions":[9.829451E-2,-1.5776712E-2,3.42101E-2,-1.0099645E-1,-1.529175E-1,-4.8515916E-2,3.4952807E-1,-1.2395418E-1,-4.547287E-3,1.0924191E-2,9.140672E-1,8.117067E-2,-3.8349181E-3,1.320583E-1,-1.3157076E-1,-6.679389E-2,-6.191441E-2,-5.516189E-2,-4.714319E-3,-1.4448392E-1,1.8874265E-2,1.5368137E-1,-1.5860086E-2,-3.449994E-2,2.5791743E-1,-6.021834E-2,-7.6247714E-3,-2.8143186E-2,4.914203E-2,-1.4423507E-1,-4.573741E-2,-4.2392615E-2,-5.390094E-2,-1.3399354E-1,-5.2656144E-2,-9.8253205E-2,-2.4621412E-2,1.32545745E-2,-1.5574542E-1,-2.8211366E-2,-7.613526E-3,-7.1355656E-2,3.538581E-2,5.8598876E-2,-4.8088483E-3,4.7901386E-4,6.173241E-2,-5.0873198E-2,2.9247055E-2,-4.306296E-3,-6.4013146E-2,-2.0398106E-2,5.6229245E-2,2.1946437E-3,-3.61382E-2,-6.3958387E-3,6.1549515E-2,-3.666078E-2,3.740096E-2,-4.7721243E-3,-6.0823347E-2,6.1764944E-2,1.2950075E-2,-6.5385416E-2,-1.8258875E-2],"split_indices":[356,62,259,233,182,244,614,528,1048,0,413,281,594,269,796,330,950,478,175,835,0,1047,0,1037,1100,0,0,0,0,1155,0,493,323,1249,682,1021,539,0,1118,1152,0,205,0,0,0,0,0,0,0,0,0,0,0,0,0,0,0,0,0,0,0,0,0,0,0],"split_type":[0,0,0,0,0,0,0,0,0,0,0,0,0,0,0,0,0,0,0,0,0,0,0,0,0,0,0,0,0,0,0,0,0,0,0,0,0,0,0,0,0,0,0,0,0,0,0,0,0,0,0,0,0,0,0,0,0,0,0,0,0,0,0,0,0],"sum_hessian":[4.6442114E2,2.849755E2,1.7944566E2,1.5990936E2,1.25066124E2,1.688455E2,1.0600162E1,3.7735905E1,1.22173454E2,2.0163658E0,1.2304975E2,1.5397571E2,1.4869797E1,6.6362185E0,3.9639432E0,4.9229364E0,3.281297E1,8.909015E1,3.3083305E1,1.21845406E2,1.2043483E0,1.5269499E2,1.2807164E0,5.1649714E0,9.704825E0,5.5747046E0,1.0615139E0,1.0782307E0,2.8857124E0,2.7246776E0,2.198259E0,5.2989435E0,2.7514025E1,1.3457768E1,7.563238E1,2.1744295E1,1.1339011E1,1.1951109E0,1.2065029E2,1.5128217E2,1.4128208E0,4.056382E0,1.1085895E0,8.1416445E0,1.5631807E0,1.0045481E0,1.7201295E0,3.0379143E0,2.2610292E0,1.2563367E0,2.6257689E1,4.6486E0,8.809169E0,3.0004005E1,4.5628376E1,3.6698742E0,1.807442E1,8.368557E0,2.970454E0,2.2147136E0,1.18435585E2,1.5007127E2,1.2109007E0,3.0388298E0,1.0175523E0],"tree_param":{"num_deleted":"0","num_feature":"1280","num_nodes":"65","size_leaf_vector":"1"}},{"base_weights":[-3.6058955E-2,-6.491213E-1,1.0463433E0,-2.8413147E-1,-1.113038E0,1.1248608E0,-1.480339E-1,-9.528296E-1,-7.610734E-2,-1.1477488E0,5.9515115E-2,1.1574224E0,-2.1698563E-1,-7.5097704E-1,8.3273685E-1,9.890504E-2,-1.0902286E0,2.4306123E-1,-5.87524E-1,2.6408091E-2,-1.16877E0,5.5769064E-2,-4.4026364E-2,-1.8521143E-2,1.1795069E0,3.259517E-2,-5.5486836E-2,-5.6132622E-2,1.8348914E-2,4.725615E-2,1.1110737E-2,-3.6326665E-2,5.2052427E-2,3.2208454E-2,-1.1709442E0,-1.8459418E-1,6.4365745E-1,-9.588121E-1,3.624412E-2,1.03225455E-1,-1.1939348E0,1.1939377E0,1.2433844E-3,-6.110334E-2,5.313998E-3,2.1288056E-2,-2.7623627E-2,4.8172273E-2,-1.0625977E-2,-5.152675E-2,1.4938128E-2,2.7837286E-2,-3.6421847E-2,4.6540923E-2,-3.5691537E-2,-6.125712E-2,-1.7562231E-2,6.0348492E-2,-2.4579163E-3],"categories":[],"categories_nodes":[],"categories_segments":[],"categories_sizes":[],"default_left":[0,0,0,0,0,0,0,0,0,0,0,0,0,0,0,0,0,0,0,0,0,0,0,0,0,0,0,0,0,0,0,0,0,0,0,0,0,0,0,0,0,0,0,0,0,0,0,0,0,0,0,0,0,0,0,0,0,0,0],"id":20,"left_children":[1,3,5,7,9,11,13,15,17,19,21,23,25,27,29,31,33,35,37,-1,39,-1,-1,-1,41,-1,-1,-1,-1,-1,-1,-1,-1,-1,43,45,47,49,51,53,55,57,-1,-1,-1,-1,-1,-1,-1,-1,-1,-1,-1,-1,-1,-1,-1,-1,-1],"loss_changes":[2.977475E2,4.818138E1,1.538295E1,2.2412895E1,5.187378E0,6.9084015E0,7.066592E0,5.6376877E0,2.0444468E1,4.9226074E0,5.515077E0,5.4615173E0,4.1767654E0,3.4333477E0,1.07052326E-1,4.907934E0,5.504055E0,1.3359825E1,1.1171484E1,0E0,3.9965515E0,0E0,0E0,0E0,2.420166E0,0E0,0E0,0E0,0E0,0E0,0E0,0E0,0E0,0E0,2.269905E0,8.803382E0,1.1192188E1,3.0300522E0,7.930574E0,2.8741763E0,2.692276E0,2.4115448E0,0E0,0E0,0E0,0E0,0E0,0E0,0E0,0E0,0E0,0E0,0E0,0E0,0E0,0E0,0E0,0E0,0E0],"parents":[2147483647,0,0,1,1,2,2,3,3,4,4,5,5,6,6,7,7,8,8,9,9,10,10,11,11,12,12,13,13,14,14,15,15,16,16,17,17,18,18,20,20,24,24,34,34,35,35,36,36,37,37,38,38,39,39,40,40,41,41],"right_children":[2,4,6,8,10,12,14,16,18,20,22,24,26,28,30,32,34,36,38,-1,40,-1,-1,-1,42,-1,-1,-1,-1,-1,-1,-1,-1,-1,44,46,48,50,52,54,56,58,-1,-1,-1,-1,-1,-1,-1,-1,-1,-1,-1,-1,-1,-1,-1,-1,-1],"split_conditions":[2.2944905E-1,-1.5776712E-2,-2.3391176E-2,-9.941618E-2,1.9209102E-2,8.414663E-2,2.2204666E-1,-1.5435351E-1,-3.0743878E-2,-2.1498367E-1,-2.483435E-2,-1.0911362E-1,3.9630052E-1,-5.317874E-2,2.4523793E-1,-4.510808E-2,-7.902938E-2,-8.374989E-2,-4.5164395E-2,2.6408091E-2,-1.2761307E-1,5.5769064E-2,-4.4026364E-2,-1.8521143E-2,-9.180085E-3,3.259517E-2,-5.5486836E-2,-5.6132622E-2,1.8348914E-2,4.725615E-2,1.1110737E-2,-3.6326665E-2,5.2052427E-2,3.2208454E-2,6.45191E-1,-4.9076077E-2,2.762117E-1,1.1736701E-1,-3.4585446E-3,-1.2445703E-1,9.4944544E-2,-3.0374827E-2,1.2433844E-3,-6.110334E-2,5.313998E-3,2.1288056E-2,-2.7623627E-2,4.8172273E-2,-1.0625977E-2,-5.152675E-2,1.4938128E-2,2.7837286E-2,-3.6421847E-2,4.6540923E-2,-3.5691537E-2,-6.125712E-2,-1.7562231E-2,6.0348492E-2,-2.4579163E-3],"split_indices":[509,62,244,233,21,773,353,1197,1047,814,843,966,367,77,722,472,89,231,13,0,112,0,0,0,1196,0,0,0,0,0,0,0,0,0,1029,954,990,451,1180,1069,815,40,0,0,0,0,0,0,0,0,0,0,0,0,0,0,0,0,0],"split_type":[0,0,0,0,0,0,0,0,0,0,0,0,0,0,0,0,0,0,0,0,0,0,0,0,0,0,0,0,0,0,0,0,0,0,0,0,0,0,0,0,0,0,0,0,0,0,0,0,0,0,0,0,0,0,0,0,0,0,0],"sum_hessian":[4.4667517E2,2.8541763E2,1.6125754E2,1.6064302E2,1.24774605E2,1.5136511E2,9.892427E0,3.7267014E1,1.23376015E2,1.2120767E2,3.566936E0,1.4791324E2,3.4518714E0,6.2713327E0,3.6210942E0,4.338404E0,3.2928608E1,7.628947E1,4.7086548E1,1.2026261E0,1.2000504E2,1.5921232E0,1.9748129E0,1.8828251E0,1.4603041E2,1.8860321E0,1.5658394E0,4.703429E0,1.5679033E0,2.5952911E0,1.0258032E0,2.4344046E0,1.9039996E0,1.1538674E0,3.177474E1,3.715933E1,3.9130142E1,2.9180304E1,1.7906244E1,2.2679124E0,1.1773714E2,1.4419424E2,1.8361782E0,3.0593386E1,1.1813549E0,1.3915111E1,2.3244217E1,2.8398003E1,1.0732139E1,2.7776663E1,1.4036406E0,1.0815972E1,7.0902715E0,1.0575202E0,1.2103924E0,1.1309501E2,4.642128E0,1.4272699E2,1.4672419E0],"tree_param":{"num_deleted":"0","num_feature":"1280","num_nodes":"59","size_leaf_vector":"1"}},{"base_weights":[-4.2418377E-3,-5.866235E-1,1.0608386E0,1.8713146E-2,-9.7407854E-1,1.1158433E0,-2.861228E-1,-2.9355273E-1,7.9026556E-1,-1.1122772E0,-3.7618345E-1,-3.269627E-2,1.1365129E0,-5.6092184E-2,6.1250556E-1,-4.5897004E-1,5.528215E-1,9.486734E-1,-8.455199E-1,1.7534321E-2,-1.1399359E0,-6.3409483E-1,5.8205533E-1,1.1598078E0,-2.8542605E-1,-4.8263813E-4,4.2024877E-2,-9.8510164E-1,-1.9602244E-1,9.662264E-1,-4.9542792E-2,1.093935E0,-2.3885967E-1,-1.294639E-2,-4.94407E-2,4.3559317E-2,-3.9336164E-2,7.942347E-3,-1.1576935E0,8.213234E-2,-1.0244148E0,1.0445039E0,-3.856183E-2,1.184554E0,8.679953E-2,2.239765E-2,-4.2900454E-2,1.1128048E-2,-6.0190387E-2,2.54146E-2,-2.5574312E-2,-1.82822E-2,5.9313513E-2,5.897028E-2,-9.606267E-3,2.3222217E-2,-4.645623E-2,-5.8828212E-2,-8.5205457E-4,3.2155037E-2,-5.3851333E-2,-5.8576208E-2,2.1391828E-2,8.085558E-3,5.9523858E-2,-1.0338296E-2,6.0041685E-2,-4.3296102E-2,4.1533932E-2],"categories":[],"categories_nodes":[],"categories_segments":[],"categories_sizes":[],"default_left":[0,0,0,0,0,0,0,0,0,0,0,0,0,0,0,0,0,0,0,0,0,0,0,0,0,0,0,0,0,0,0,0,0,0,0,0,0,0,0,0,0,0,0,0,0,0,0,0,0,0,0,0,0,0,0,0,0,0,0,0,0,0,0,0,0,0,0,0,0],"id":21,"left_children":[1,3,5,7,9,11,13,15,17,19,21,-1,23,-1,25,27,29,31,33,35,37,39,41,43,45,-1,-1,47,49,51,-1,53,55,-1,-1,-1,-1,-1,57,59,61,63,-1,65,67,-1,-1,-1,-1,-1,-1,-1,-1,-1,-1,-1,-1,-1,-1,-1,-1,-1,-1,-1,-1,-1,-1,-1,-1],"loss_changes":[2.6700107E2,6.52863E1,1.159317E1,2.6634272E1,1.360321E1,6.0986023E0,5.7684216E0,1.1277855E1,9.053616E0,4.311264E0,8.616322E0,0E0,5.1365356E0,0E0,5.6232893E-1,8.994953E0,9.462164E0,5.3508034E0,2.4733067E-2,3.6144586E0,3.2757263E0,7.568531E0,5.5608344E0,3.6924896E0,1.703275E0,0E0,0E0,6.047716E0,1.0376338E1,3.6628323E0,0E0,3.1359024E0,2.3910706E0,0E0,0E0,0E0,0E0,0E0,2.829239E0,7.435318E0,4.219179E0,5.919981E-1,0E0,3.4110413E0,3.7675867E0,0E0,0E0,0E0,0E0,0E0,0E0,0E0,0E0,0E0,0E0,0E0,0E0,0E0,0E0,0E0,0E0,0E0,0E0,0E0,0E0,0E0,0E0,0E0,0E0],"parents":[2147483647,0,0,1,1,2,2,3,3,4,4,5,5,6,6,7,7,8,8,9,9,10,10,12,12,14,14,15,15,16,16,17,17,18,18,19,19,20,20,21,21,22,22,23,23,24,24,27,27,28,28,29,29,31,31,32,32,38,38,39,39,40,40,41,41,43,43,44,44],"right_children":[2,4,6,8,10,12,14,16,18,20,22,-1,24,-1,26,28,30,32,34,36,38,40,42,44,46,-1,-1,48,50,52,-1,54,56,-1,-1,-1,-1,-1,58,60,62,64,-1,66,68,-1,-1,-1,-1,-1,-1,-1,-1,-1,-1,-1,-1,-1,-1,-1,-1,-1,-1,-1,-1,-1,-1,-1,-1],"split_conditions":[2.2944905E-1,1.7727278E-2,7.591137E-2,-8.091344E-3,-2.4484752E-2,-1.6714461E-1,3.4360707E-1,4.9179126E-2,2.2936411E-2,-2.1304679E-1,1.3671012E-1,-3.269627E-2,2.3779774E-1,-5.6092184E-2,2.0763907E-1,-2.3829518E-2,3.4332633E-2,-2.0282496E-2,-7.4888356E-2,-1.2466881E-1,-2.2112077E-1,-8.7263435E-3,5.485972E-1,2.3565875E-1,1.2460497E-1,-4.8263813E-4,4.2024877E-2,-9.541627E-2,-5.0742082E-2,-1.3478667E-1,-4.9542792E-2,-7.1022056E-2,